// Auto-generated model weights for Arduino deployment
// Dataset: ninapro
// Architecture: GRU(2->50,relu)
//              -> Dense(100,relu) -> Dense(1)
// Sequence length: 50

#ifndef MODEL_WEIGHTS_H
#define MODEL_WEIGHTS_H

#define INPUT_SIZE 2
#define HIDDEN_SIZE 50
#define DENSE_SIZE 100
#define OUTPUT_SIZE 1
#define SEQ_LEN 50

// gru.weight_ih_l0: shape (150x2), 300 values
const float gru_weight_ih_l0[300] = {
    -8.10484409f, -0.69765455f, -2.80946898f, -3.22841501f, -1.20260537f, -2.43031859f, -2.18561435f, -1.24815512f,
    1.90275383f, 1.35801673f, -5.27701139f, -1.80733740f, 0.78408927f, 2.59049034f, 1.80031705f, -1.47547400f,
    -0.49459553f, -7.36457825f, 0.12032790f, -2.32366633f, -3.41801596f, 1.31851125f, -1.26742971f, 0.02165617f,
    -1.24499989f, 2.02348328f, 0.23047805f, -0.27644792f, 0.72152555f, 0.22575933f, -0.22543582f, -4.79631948f,
    0.68521601f, -4.12403393f, -3.21028399f, -1.42657447f, -0.30303064f, 0.05177153f, -3.99294090f, -2.95963550f,
    -1.44291544f, -4.58388901f, 2.87045598f, 2.32348061f, -4.14036417f, 0.85807991f, -1.86894476f, -0.80777210f,
    0.26862195f, -3.23696399f, -0.18061261f, -1.04651392f, -3.83818793f, -0.98992532f, -2.22880960f, -1.40640557f,
    -0.91307127f, -0.47058809f, -0.14417943f, 1.77919519f, -0.96705174f, 0.35968071f, -0.88509655f, -2.70182276f,
    -1.92139411f, -0.08051451f, -1.09175372f, -0.27306020f, -2.52679729f, 1.54636991f, -1.35606623f, -3.90224123f,
    -2.97244954f, -2.18137693f, -1.67217755f, -9.66704655f, 0.93123156f, -2.39663029f, -0.87083930f, 3.27891564f,
    2.13521123f, 0.24702762f, -0.19501907f, -0.49685618f, -1.39850926f, 0.26581433f, 0.46218243f, -0.53924662f,
    -3.09944415f, 1.22142673f, -1.34256482f, -6.04482555f, -3.09825230f, 1.97341764f, -1.67571020f, -2.36920071f,
    -1.78664637f, 2.15346837f, -1.70510924f, -5.07281303f, 5.92099380f, 0.69874102f, -0.08859461f, 1.71132600f,
    -1.95526969f, -0.34619805f, 0.72666037f, -5.88077021f, -3.35387373f, -1.97076142f, 2.74265146f, -4.22146511f,
    0.64012045f, -0.32873315f, 1.65840709f, -0.81975520f, -2.02936435f, 2.15737033f, 2.80097604f, -0.14380872f,
    -1.12969327f, -2.48088884f, -1.02691126f, -0.14622937f, -0.05485949f, -4.44519138f, 4.80161381f, 5.19168663f,
    2.06993794f, -0.76432216f, 2.81705189f, -3.64346170f, -1.07542360f, 1.41058004f, -1.76948082f, -1.71389091f,
    1.38525999f, 1.91119623f, 8.70254803f, -0.14208750f, 1.26274574f, 2.56733251f, 0.22318877f, -3.53266191f,
    -0.45732114f, 4.07994938f, 5.20513868f, -3.96167326f, 8.12037659f, -1.22666192f, -0.87285358f, 0.83000761f,
    4.33933258f, -1.20906591f, 1.83612919f, 5.18752193f, 1.66859996f, -1.21814132f, 2.82152510f, 0.81965917f,
    0.68814600f, -1.53237498f, 2.43099499f, 4.59651899f, 4.01894283f, 0.91995603f, 0.65672004f, -3.38815045f,
    -0.93422014f, -3.53436112f, -0.58776349f, -5.15196991f, 5.30917931f, 5.28227425f, -1.17182398f, -5.79203653f,
    -0.90559477f, 1.15625298f, -0.97495759f, 3.36918616f, -0.35818142f, 3.17155075f, 1.21807766f, 3.15111613f,
    3.26325727f, 3.43012309f, -0.19971134f, 1.30809510f, 3.75367379f, 3.53948236f, 2.62965059f, -2.50852513f,
    5.78903532f, -4.40382576f, 1.83910704f, 6.12926197f, 2.91224909f, 0.54120457f, 1.39783347f, 4.62257624f,
    -4.47271109f, 0.06208865f, 0.61107564f, 1.70383906f, 2.93261766f, 1.38436079f, -1.95284116f, 2.53404927f,
    0.41488367f, -11.37985992f, 3.64064050f, 0.01070704f, -0.21681540f, -1.54859197f, 1.49694645f, 1.68712163f,
    -1.54466426f, -17.97045708f, 1.11051691f, 4.40973425f, -4.18653011f, 2.16026545f, 0.50465369f, -3.20394468f,
    -0.74313569f, 1.51861787f, 2.68751574f, 0.49613190f, -0.41052753f, 2.53909945f, -5.94899845f, 0.58996296f,
    0.27688625f, 3.59847236f, -1.48965645f, 9.12461948f, 0.46534839f, -4.22003174f, -4.84561014f, -3.18863201f,
    0.72093570f, 2.24281216f, -3.49728417f, -5.00247526f, 1.96300220f, -1.67385280f, -1.46353543f, -3.48862910f,
    -5.88849688f, -1.34626210f, -2.62097931f, -9.11408901f, -1.71971834f, -5.21003723f, -2.02856827f, 0.67519939f,
    1.42081654f, 0.34577519f, 0.61764556f, -3.29882741f, 5.27831268f, 3.34421325f, 2.51061749f, -10.54021168f,
    1.58749270f, 2.86719203f, -1.72397876f, 0.78236645f, -2.46738935f, -3.71603680f, 1.32283807f, -10.19299984f,
    2.26029181f, 4.00228024f, 1.77020550f, -15.87397289f, -0.88704586f, 0.54399991f, 0.83512414f, -10.77790642f,
    -0.20586348f, -6.35667992f, -0.68076658f, -3.45530486f, -3.77315617f, -1.81389284f, 0.59385520f, 3.88386393f,
    3.44555235f, -0.20198888f, 1.72637522f, -4.37253666f, -3.53308964f, -2.63926697f, 2.10997534f, -1.93263388f,
    -0.35268474f, -3.23764157f, 0.42710283f, -7.91023779f
};

// gru.weight_hh_l0: shape (150x50), 7500 values
const float gru_weight_hh_l0[7500] = {
    0.25148293f, -0.23200387f, 0.00273991f, 0.34524632f, -0.46580663f, -0.21091284f, 0.51916295f, 0.63052535f,
    -0.16837515f, 0.50856054f, -0.28420082f, 0.66101098f, -0.58482695f, -1.00044072f, -0.55333167f, 3.30959558f,
    0.35783875f, 0.05426752f, 0.96950716f, -0.37867871f, 2.75341582f, 0.54461920f, 0.07669789f, -0.57936114f,
    2.36385608f, 0.17931978f, 0.75558388f, 0.05368357f, 1.87437379f, 0.86323088f, 0.36228603f, -1.42906022f,
    0.29929823f, 0.16046618f, 1.02703464f, -1.00983500f, -1.22964633f, -0.11899868f, -0.26028463f, -0.20182362f,
    -0.65756023f, 0.31147987f, 0.63673055f, -0.70100290f, -0.82750827f, 0.32887536f, 1.66207886f, -0.77309978f,
    2.48234582f, 0.19930999f, 0.95279533f, -0.14230311f, -1.35701215f, 0.33467805f, 0.45187265f, -0.54009235f,
    0.32944521f, 1.52213001f, 1.13638926f, 1.46113169f, 1.32475996f, 0.28572690f, -0.10608330f, -0.10363452f,
    0.41959560f, 2.04215527f, 1.41181493f, 0.79029542f, -0.84082693f, 2.85450649f, 1.28305626f, 1.94066727f,
    -1.71863067f, -0.04320870f, 1.34317148f, 2.22230458f, 0.73845398f, 0.52494836f, -0.08804799f, 0.34954283f,
    0.61884546f, -2.94320011f, -0.19005689f, -0.38638017f, 1.06904244f, -1.34956658f, -0.16363764f, -1.88147759f,
    -0.11867730f, 0.68676937f, 0.31605756f, -0.25690600f, 0.98101515f, 0.75522298f, -2.19163418f, -1.43648720f,
    0.36051553f, -1.63925266f, -0.79257381f, 0.29659480f, -0.64561784f, 0.97274995f, 0.84958035f, 0.37728295f,
    0.94795936f, -0.85080081f, 0.11215640f, 0.87075585f, -0.52488101f, 0.02594591f, -1.33378065f, 0.57270426f,
    0.63660520f, -0.87748706f, 0.42248324f, -0.44935560f, -0.28262132f, -0.64714211f, 0.54577267f, 1.38527250f,
    -0.30286023f, -0.86863500f, 0.00795854f, -0.86548215f, -0.16108277f, 0.15892622f, 0.17550471f, -0.18987228f,
    -0.98308432f, -0.28235894f, 0.67211235f, -0.43950149f, -1.06207657f, 0.07599407f, 0.81605589f, -0.84949690f,
    -0.91258681f, 0.26035157f, 0.15955204f, -0.23631205f, -0.84942961f, 1.68419397f, -0.00392519f, -0.59278262f,
    0.71395361f, 0.66634792f, -0.58218181f, 0.54047549f, 1.40791869f, -0.86085004f, -1.30645347f, 0.25485116f,
    -0.79858214f, 0.64805025f, -0.60307586f, -0.54087090f, -0.36597964f, 0.83520740f, 0.12210073f, -0.99041909f,
    -0.10568719f, -0.36525634f, -1.84407544f, -0.79500520f, -0.67542386f, -0.07684847f, 0.60394830f, 0.44333908f,
    0.32583892f, 0.91704017f, 0.15295947f, 1.80654025f, -1.00771558f, 1.15099347f, -0.20044005f, 1.35459304f,
    -0.02367842f, -1.64196932f, 1.88179994f, -0.56586671f, -0.14186360f, -0.85649514f, -0.89571989f, 0.74137014f,
    0.31371474f, -0.17480674f, -0.51837486f, -1.07722127f, 2.79952168f, 0.77251965f, 0.87666619f, -0.40525201f,
    -0.71280640f, 0.00844387f, -0.39572349f, 0.20028214f, 1.21026015f, -0.35540929f, 0.23588377f, -0.09163368f,
    -0.00240656f, -0.65814292f, 0.04032226f, -0.00327471f, 0.59326357f, -1.25812817f, 0.46255764f, 1.61926532f,
    -1.37474418f, -0.49299034f, -0.65756029f, -0.19720027f, 0.04795691f, -0.15426296f, -0.73000371f, -0.95020181f,
    -0.56679755f, 1.20447159f, 2.22000098f, -0.41930357f, -0.17663270f, 0.10465203f, 0.06668784f, 0.59344298f,
    -0.37633586f, -0.85699069f, 1.05921924f, -1.23735023f, 0.79554844f, 2.07511115f, 1.76831520f, 2.22503710f,
    1.19391119f, -0.74169970f, -1.28648436f, 0.32796890f, 1.98130882f, 2.00891423f, 0.17819905f, 0.85424995f,
    2.59079909f, -0.14365351f, -0.39426807f, -0.44371971f, -0.88312137f, 0.01861475f, 0.29652512f, 1.05865681f,
    1.02599359f, 0.53008485f, -0.17314243f, 0.71948653f, 1.00798213f, -0.40685371f, 0.76332796f, 0.95471650f,
    1.64930272f, 0.00242354f, -0.56802100f, -0.98107231f, 0.01419777f, -0.85797209f, -1.73471749f, 0.03483984f,
    -0.79956430f, -3.08061838f, -0.53704846f, -1.57988214f, -0.49412861f, 0.89679945f, 1.14883733f, -1.14762437f,
    1.41770601f, -0.83037913f, 0.48392832f, -2.73401141f, -0.12284490f, 0.22345808f, 2.07418418f, -1.25079370f,
    1.15964997f, 0.83806920f, -0.82382274f, -0.53814620f, -0.48439378f, -0.12017751f, 0.04965184f, 2.32270598f,
    0.33188689f, 0.93884653f, 0.85403627f, -0.82901984f, -1.29734969f, -1.74505711f, -0.92812812f, -0.49236470f,
    0.38630319f, -0.33244994f, -0.53137332f, 1.31389558f, 1.18280804f, -3.02684116f, -0.07030302f, 0.08183195f,
    0.51001883f, -0.63117886f, 0.36173058f, -1.08594704f, -0.45915133f, 2.00887465f, 0.22647482f, -2.09265494f,
    0.13998033f, 0.49309757f, -0.46607211f, -0.75509632f, 1.83137059f, 0.67450833f, -0.65365022f, -0.43993711f,
    -2.12299562f, -0.57827091f, -0.71249813f, 2.25189924f, -0.55817217f, -1.84860790f, 0.93162054f, -2.09301853f,
    -0.34793308f, -0.18416654f, -3.64507055f, 0.98158598f, 0.54144239f, 0.71671247f, 0.78952056f, -0.77498728f,
    0.77136981f, 0.21546692f, -0.55721241f, 1.51772618f, -2.35447907f, -4.27602053f, 0.08194201f, -0.75768793f,
    -2.86760354f, -2.36276531f, 0.17771718f, 2.52472281f, -0.23627457f, 1.84664369f, -1.69941819f, -0.17887639f,
    -0.20130351f, 2.43548417f, -0.58368975f, -1.78046167f, -1.36224413f, -2.01032853f, 0.46361038f, 0.84178549f,
    -2.96520185f, 2.25359273f, -1.92641330f, 1.08535635f, -0.55049056f, -0.50048214f, -0.82833517f, 0.68613958f,
    -0.61984372f, -1.94629383f, 0.04885508f, 0.90120721f, -0.20000760f, -1.55390608f, -1.49063277f, -0.11671128f,
    -0.59903836f, 0.38166225f, -0.35211697f, 0.58871561f, 1.91792345f, 1.53794253f, 1.01419246f, 0.81646812f,
    -0.79098606f, 2.05919790f, 1.61964977f, -0.24520247f, 0.93626726f, 1.13599730f, -1.63456440f, 2.24359775f,
    0.24064587f, -1.42409348f, -2.31746888f, 0.55749595f, -2.34631324f, 2.48397279f, 0.62258333f, 1.60911906f,
    1.03069651f, 1.70644987f, 0.47874731f, -0.28541064f, 1.03963423f, -0.03549324f, -0.98618758f, -0.24858671f,
    1.07590127f, -0.55509132f, 0.35718453f, -0.24382359f, -0.58737427f, -0.05990214f, -0.18385571f, 1.66980720f,
    0.08205193f, 1.65022182f, -1.03961909f, -2.48831606f, 1.46524751f, 1.65351450f, -0.05081525f, 0.49640375f,
    0.23997875f, 1.38737345f, 1.32963717f, 0.01002455f, -0.44610959f, -0.36285186f, -0.57925797f, -0.99207139f,
    -0.56719488f, -0.10866388f, 0.09253392f, -0.01108818f, 0.81632239f, 4.01056433f, 0.93751377f, -0.34930110f,
    -0.98911697f, 0.26491752f, -0.18535741f, 1.60507798f, -1.45492303f, 0.14329320f, -0.50607598f, -1.78873813f,
    0.15143505f, -0.35654292f, -0.22079106f, -1.37459540f, -0.91672421f, -0.43643203f, 0.00157257f, -0.12459457f,
    -1.00062191f, 1.05003250f, 2.41644573f, -0.70739502f, -0.12045135f, 0.78461486f, 0.21732159f, -1.69116259f,
    -0.43450275f, -0.30203506f, -0.74703342f, -2.70706129f, -0.11684375f, 0.00917069f, -1.02639556f, 1.76540244f,
    -0.62986648f, 0.12621269f, 0.17604622f, 1.86228538f, -0.52526361f, 0.62840325f, -0.89409608f, 0.42855135f,
    1.31192660f, -1.10586202f, -0.49651018f, 1.02454269f, 2.13360190f, 0.05871522f, -2.00085807f, 2.53609681f,
    0.20597243f, -0.25258487f, -0.47638541f, 0.05239186f, -0.81207073f, 0.13145576f, 1.03497815f, -0.64336407f,
    0.40200356f, 0.59175092f, 0.46704975f, -0.26592803f, -0.49468446f, 0.58782190f, -0.66239405f, 0.54982948f,
    -0.66511899f, 0.10713395f, 0.81959057f, -0.43839738f, 0.58821076f, -0.02921576f, -0.92592591f, 0.30009905f,
    -0.08383524f, -0.69459391f, 0.33881900f, -1.23913896f, 0.10676239f, 1.31511283f, 0.11940980f, -0.38687459f,
    0.18990006f, -0.47821754f, 1.73594820f, 0.52455652f, -0.21572904f, 0.20962238f, -0.19339378f, -1.06110537f,
    -0.34310678f, 0.49133459f, 0.37015936f, -1.62721622f, 0.06561837f, -0.43950012f, -0.69481188f, 0.41813868f,
    1.66525042f, -0.68629253f, 0.77362335f, -0.68667310f, 0.07224758f, 0.07094564f, -0.60847688f, -0.67251444f,
    0.07789511f, -0.89485478f, 0.36928844f, -0.27192640f, 0.31932098f, 0.04971152f, -0.33258408f, -0.70592093f,
    -0.24077594f, -0.74370962f, -0.23466435f, -0.11224861f, 0.47994071f, 1.41323841f, 0.40180850f, 0.35678905f,
    -0.04104813f, -0.60879594f, -0.08816443f, -1.00833869f, 0.05546274f, 0.37703326f, -0.14573275f, 0.10342278f,
    0.41838762f, 0.92448652f, -0.74408108f, -0.80503434f, -1.39765668f, -0.90476513f, 0.19258164f, 1.12072814f,
    -0.29595348f, 1.49252117f, -0.94799173f, 0.48058480f, 0.21677153f, 1.08667386f, -2.34100509f, -0.95816892f,
    -0.01435173f, 0.23141858f, -1.36562729f, -1.33744216f, 1.11063004f, -0.39572573f, 0.59052426f, -0.50015759f,
    -1.81742871f, -0.81579137f, 0.29472303f, -0.05302730f, 0.06381616f, 0.36742908f, 0.17158413f, -0.49225619f,
    2.24206495f, -0.96458948f, 0.52417463f, 0.55762738f, -1.18312681f, 1.70700204f, -2.08611393f, -1.05624223f,
    0.10148639f, -0.24914007f, 0.14179249f, -0.70376688f, 1.39706612f, -0.11933634f, 0.54297948f, 0.63584948f,
    -0.45682719f, -1.38677728f, 0.19761273f, -0.56240124f, -0.83907157f, 0.03141746f, 1.72928154f, -1.47248900f,
    0.79952204f, -0.23701669f, 1.51079047f, -0.14290880f, -1.70587814f, 0.40086338f, 0.38061538f, -0.60004008f,
    -2.27840853f, -0.49538732f, -0.41900951f, -0.23251206f, -1.28078997f, -0.80866963f, -1.09365296f, -0.46055686f,
    0.86870396f, 1.57537222f, 1.19038844f, 2.44270015f, -0.76325494f, -0.22273110f, -0.24097794f, -0.29500589f,
    -0.14464496f, -0.54422337f, -0.87000173f, 1.79986095f, -0.45281327f, 1.26727116f, 0.25113991f, -0.10310721f,
    -1.36871970f, 0.75141120f, -0.14261539f, 0.43343860f, -0.74404514f, -0.55251145f, -0.17843689f, 0.40271240f,
    2.75600767f, 0.63764822f, 2.46506977f, 0.21029079f, 0.66093045f, 1.83559084f, 2.54391623f, 0.79381406f,
    -0.22616033f, -0.72599196f, 2.08526134f, 0.16744252f, -1.00044537f, -0.89519680f, 1.35509336f, -0.15563942f,
    -0.17035525f, -0.22092628f, 1.44777393f, -0.18857901f, -0.20929442f, -0.49875221f, 0.04182733f, 0.77148736f,
    2.35727215f, 0.59360892f, -0.48880830f, -0.74586362f, -1.08339345f, 0.11945494f, -0.53688651f, -0.11018281f,
    -0.17010359f, 0.29970568f, 0.23107664f, -0.45236322f, -2.38506126f, 1.40373862f, 0.52186674f, -0.29553530f,
    -0.91091061f, 0.13175113f, -1.50574601f, -0.85282218f, 0.00891497f, -3.09167409f, -1.22268462f, 2.66951156f,
    1.89888823f, 1.93434298f, -0.02009922f, -0.95772517f, -0.24989553f, 2.11117530f, -1.10166168f, -3.88502955f,
    1.22864735f, 0.40321901f, -0.03137869f, -4.36983299f, -3.09904957f, -0.92925394f, -0.46942189f, -2.64372444f,
    -1.79242170f, 0.51221341f, 3.25716615f, -0.17434408f, 2.68004632f, 4.06202316f, -1.79742146f, -0.87252837f,
    0.23034421f, 0.74535400f, 1.57596195f, 0.90147710f, -1.13379776f, 1.85328948f, -1.78737688f, 3.00546837f,
    -0.34043297f, 0.13186654f, -0.91309512f, 0.40485868f, -2.22131658f, 1.02962697f, 1.09164834f, 2.40228963f,
    -0.10794950f, 0.64963120f, 0.62967885f, -0.29120377f, -0.81171268f, 0.34781757f, -0.80254555f, -0.16953729f,
    -0.74882317f, 0.34655350f, 0.21302021f, -0.29063755f, -1.86725771f, -0.83303827f, -1.04140329f, 0.34010756f,
    0.32579246f, 0.52872401f, -0.13368590f, 0.56224471f, 1.48070800f, -0.63938248f, 0.79702157f, -1.49053860f,
    -0.40437642f, -0.14510873f, -0.02837861f, -0.74894369f, 0.93165559f, 0.34123448f, -0.40674207f, -0.54805261f,
    1.18706667f, -0.09472426f, 0.43531206f, 0.31625125f, 1.23336363f, -0.17765391f, 0.91776520f, -0.08729016f,
    -0.23927274f, 0.76192951f, -0.84307480f, 0.62211686f, -0.92986745f, 0.40079814f, 0.89347655f, 0.41870487f,
    0.41743246f, 0.71493244f, -1.13113344f, 0.40731740f, 1.19816971f, -1.99159324f, 1.38538361f, 0.75022501f,
    1.04411066f, 0.04529902f, -0.06049962f, -0.83026487f, -3.02352405f, 0.76512617f, 0.10635567f, 0.02540439f,
    0.74088836f, -0.76701725f, 0.13389024f, 1.36121154f, 0.30747458f, 1.09023166f, 0.81779277f, -0.08538442f,
    2.32345247f, 1.19664073f, 1.92622399f, 0.87652004f, -0.07664169f, -0.15803321f, -1.59011996f, -0.57307822f,
    0.41481158f, 1.42209554f, 0.13739499f, 1.66967607f, 0.83318359f, 0.95658726f, 0.38232613f, -0.17781971f,
    1.05334008f, 0.96173024f, -0.51116121f, 0.02999498f, 0.74022961f, -0.35193536f, 0.09821286f, -0.73458862f,
    1.85375249f, 0.35546407f, 0.46592671f, 0.02049836f, -0.40626091f, -1.03597200f, 0.43516541f, 0.16596152f,
    -1.40448737f, 2.65946198f, 1.12705815f, -0.76929945f, 1.99183655f, -0.44979763f, 0.99292403f, 0.79149276f,
    -1.24946070f, 0.34875354f, -1.03984451f, 1.30181885f, 3.24025965f, 0.12299884f, 1.55577362f, 1.28012514f,
    -0.95016664f, -0.61226684f, 0.75488156f, 1.05135727f, 2.06280947f, -1.11671388f, -1.23112381f, 0.34254059f,
    0.18061237f, 0.45414174f, -0.37677848f, -0.56048274f, 1.92530346f, -0.99461621f, -1.03269911f, -0.94703561f,
    -0.10663865f, 0.64428782f, -0.69292617f, 2.78251743f, 1.00092733f, -0.20450751f, -0.36738119f, 0.05054478f,
    1.50296795f, -0.07774416f, 0.52949387f, 0.69269848f, -1.15049887f, -0.49629647f, 0.20647791f, -1.31781328f,
    0.02334929f, 1.29015362f, 1.11228299f, -1.04904807f, 0.14669481f, 1.22851825f, 0.35409448f, -1.43105769f,
    -1.97367299f, 2.29194641f, 1.29033184f, -0.11191017f, 0.18850428f, 1.48505950f, -1.30379093f, -3.82079577f,
    0.63247687f, 1.64648259f, 1.07483435f, 3.51717782f, -2.48126125f, -0.85834622f, -3.96785498f, 0.78472728f,
    1.69519758f, -0.55432385f, 0.79892755f, -0.96876901f, 1.85831702f, 1.32945585f, -0.53620607f, 2.36934423f,
    1.00832367f, -1.48190188f, 0.43597454f, -0.68615949f, 1.74383318f, -0.25770703f, -0.88067800f, -0.42909831f,
    -0.95248896f, 0.71956551f, -1.27920496f, -0.20869824f, 1.68998206f, 0.87994814f, 1.80102897f, 0.33584738f,
    0.26378042f, -1.15783131f, -0.29726893f, -0.00416014f, -0.06116900f, -1.01001155f, 1.54780066f, 0.43086207f,
    0.44251800f, -0.22151175f, -0.22550216f, 0.34918797f, 0.58527046f, 1.61551976f, -0.73701102f, -0.34818289f,
    -0.30080044f, -0.00581719f, -0.71531165f, 0.75098360f, 0.06292753f, 1.30378723f, 0.78741753f, 1.24036503f,
    0.73109996f, 0.17462026f, -0.64916635f, -0.29727963f, -0.52246809f, 0.79901737f, -0.20298453f, -0.13139707f,
    -0.11658488f, 2.72266912f, 0.35024673f, 0.84754837f, -0.86627758f, -0.48334655f, 0.37328488f, -0.08159146f,
    -0.54481202f, 0.51208264f, -0.48492837f, 0.99921769f, -0.08649877f, 0.28343618f, 0.03276265f, -0.21556646f,
    -1.75337899f, -0.43482351f, -0.17401093f, 0.12875956f, 0.05565055f, 1.06268966f, -0.05954987f, 0.97358990f,
    1.94417572f, -0.63754076f, -0.40169033f, 0.38261157f, -0.98771131f, 1.28800929f, -1.21634912f, -0.47125432f,
    -2.98070931f, -0.22854154f, -0.87449777f, -0.50844067f, -0.83231342f, 0.97818381f, 1.21868122f, 1.42173719f,
    0.73506880f, -0.44300631f, -0.96195811f, 0.73073763f, -0.50795579f, -0.30590406f, -1.20014048f, 0.95667404f,
    0.28149825f, -0.55314314f, -0.25681150f, -1.16276133f, 0.69034117f, 1.32840979f, -2.24000239f, -0.78544998f,
    0.16569950f, 2.72559476f, -0.55814111f, -1.78766727f, 2.71842670f, 0.05674271f, -0.46179107f, -1.71175730f,
    -0.35072720f, 0.11606877f, -0.34035340f, -0.46163893f, -0.04677423f, -0.23637104f, -0.26199761f, 1.15926707f,
    -1.47745085f, 2.01566601f, 0.90585053f, -0.27610180f, 0.83310753f, 0.20387045f, -0.23141278f, 0.35575214f,
    0.36263624f, 1.17572844f, -0.22107324f, -0.12988625f, 2.08141518f, 1.12606215f, 1.32202327f, 0.03279759f,
    -0.45764989f, 0.36673728f, 0.51669180f, -0.94772303f, 0.52208197f, -0.52653182f, 0.92938262f, 0.10282617f,
    0.61344534f, -0.80726522f, 0.72394872f, -0.22697394f, 0.47316003f, -0.66540521f, 0.44424924f, -0.46711710f,
    -0.23353855f, -0.25275084f, -0.80871636f, 2.01511455f, 1.16702580f, 0.73738933f, -0.46930379f, 0.30434355f,
    -0.66734380f, -0.19976561f, -0.27982390f, -1.29808259f, -0.36757311f, -0.93954831f, 1.07902968f, -1.90923476f,
    1.13516951f, 0.94944048f, -0.84656161f, 2.79097295f, 3.24701166f, -0.98397195f, 2.50755978f, 0.28414607f,
    1.05271518f, 0.42131388f, 1.93155324f, 2.16087675f, 1.29425657f, 1.86911047f, 1.78561616f, 1.65175426f,
    -0.54603964f, 3.53008914f, 1.87871337f, -2.00807214f, 2.88691378f, 0.70386457f, 1.99926305f, -1.07515728f,
    -1.61510623f, 0.31836542f, -0.45706165f, -2.69708467f, 0.18221408f, -1.22177625f, -0.51753575f, -1.92918336f,
    0.40656394f, -1.27537477f, -0.53037083f, 1.19923687f, -0.05363390f, -0.09532851f, 2.28096747f, 1.56337273f,
    -0.90059340f, 0.80241764f, 2.24368811f, 0.18873182f, -0.09203990f, -0.46575785f, -0.63062412f, 0.16316113f,
    0.03192202f, -0.69952863f, 0.41348633f, 0.45566094f, -0.06868389f, 0.34557202f, -0.05779922f, 1.71736670f,
    -0.07221755f, -0.02731111f, -2.46095037f, -0.29816583f, -0.11708464f, 0.68898487f, 3.94071126f, -0.63353300f,
    0.26548991f, 0.22850405f, -1.61086857f, -1.08917356f, -0.22973366f, 0.06269756f, -0.41101345f, 0.28446877f,
    0.48047408f, -0.49463338f, 0.52313757f, -0.95579171f, -0.46824515f, -0.50363851f, 0.68418145f, 0.62530178f,
    -1.71561193f, -0.28631815f, -1.30568337f, 0.97655904f, 0.21362570f, 0.79204917f, -1.00466144f, -0.26219288f,
    -0.82676160f, -1.66060781f, -0.09158905f, -0.32792583f, -1.83775628f, -0.43157879f, 0.16663444f, 0.24881284f,
    0.70886558f, 1.41498399f, -0.74133313f, -0.49833938f, 0.00912307f, -0.75321037f, -2.85041165f, 0.71769935f,
    2.05223131f, -0.15000023f, -0.60447872f, 0.74438429f, 0.60679144f, -0.59735543f, 0.29683864f, -0.11770716f,
    -0.17739917f, -0.68651795f, 1.27121460f, -0.50153619f, 2.03269243f, 0.22970691f, -0.55125874f, -0.68472064f,
    0.42572656f, 0.23997828f, 0.33152077f, 0.19725968f, 0.30685669f, 0.22566739f, 1.19673800f, -0.76271218f,
    -0.63340408f, 0.86571932f, -0.59665316f, -0.97029322f, 0.21547554f, 1.21214819f, 0.76302987f, -1.11455810f,
    0.53576034f, -0.78988808f, 0.66686362f, 0.29039997f, -0.32939574f, 0.58778578f, 0.11650755f, 0.44849578f,
    0.37018490f, 0.49723819f, 0.60051352f, 0.03333995f, -0.14272821f, 0.25508389f, 0.36486512f, 0.43119761f,
    -0.64990157f, -0.52756482f, -0.21515171f, -0.86349648f, 0.75927418f, -0.08547385f, 0.90929765f, -1.17090726f,
    0.10802875f, 0.57848322f, -0.26750177f, 0.04301909f, -0.55865312f, -0.23448797f, -0.12127965f, 1.42346883f,
    0.84113234f, 0.09339090f, -0.54359835f, 1.82398307f, 0.87407619f, 2.42537713f, -0.30390200f, -0.42192602f,
    -0.43509552f, -0.68152839f, -0.41500780f, -0.30684358f, -0.75145286f, -0.29160973f, 1.18530333f, 1.24597347f,
    1.05151367f, 0.59471625f, -0.05772638f, 0.42296571f, 0.76958567f, 2.92531371f, -0.90173846f, 0.38361374f,
    -0.28573117f, -0.32359552f, -0.24111243f, -0.54494625f, -0.37321731f, -0.08242168f, -1.92914498f, -0.76752174f,
    -1.15943253f, -0.09447771f, 0.89039880f, 0.36269706f, -0.62927383f, -0.07933440f, 0.71694398f, 0.24443291f,
    -1.12124026f, -1.55695724f, 0.19820046f, 0.45011303f, -0.18987329f, 0.92199755f, 0.08847073f, 1.73767829f,
    -0.02134519f, 1.26235545f, -0.92117131f, 1.63879144f, 0.30144474f, 0.78334147f, 0.52697510f, 0.08608186f,
    2.47527266f, -0.13220510f, 0.13034973f, -1.12079811f, -0.88610530f, -0.40446967f, -0.41958395f, -0.45750761f,
    0.36242056f, -1.37353480f, 0.47792867f, 0.92531675f, 0.45888811f, 0.86592776f, -0.51082623f, 0.33651292f,
    0.21937571f, 1.54297209f, 0.92111605f, -0.21874762f, 0.11784714f, 0.71115971f, -0.61433047f, 1.30611980f,
    5.01020479f, 0.68840891f, -0.80640090f, -1.07308269f, -0.94694263f, -0.50785011f, -1.28948152f, -0.14095421f,
    -0.72433507f, -2.30800319f, 0.54668278f, 0.79546189f, -2.03959084f, -0.71894580f, -0.86404854f, 2.24810171f,
    1.52443659f, -0.11536802f, -0.75383455f, -0.38739532f, -0.47556630f, 0.41479331f, -0.16128416f, -3.61719394f,
    -0.70311660f, 0.67517185f, -1.42067623f, 0.88222575f, 1.70971036f, 1.30942082f, -0.47367293f, -0.48240688f,
    1.85944998f, -1.82890975f, -0.25788257f, -1.15783370f, -0.92335737f, -1.03178072f, 0.20984323f, 0.35881212f,
    -0.76179469f, -0.76686329f, -0.75896031f, -1.38321245f, -1.71833384f, -0.35288250f, 0.73822290f, 1.44977939f,
    1.49160016f, -0.43369299f, 2.73268986f, 0.46327683f, 1.33930302f, 0.61848903f, -0.60766107f, 0.77021438f,
    0.34652689f, 0.10805584f, -1.54586983f, -0.56813657f, 0.23871942f, -1.03479564f, -1.37884414f, -1.67019510f,
    1.95400620f, -4.06814337f, 1.18640554f, -2.07629704f, -0.32549483f, 0.19690502f, 0.39387840f, -1.14847648f,
    0.37406459f, 0.82379776f, 0.27705726f, -1.24119902f, 0.14514168f, 0.67346090f, -0.94132942f, -0.53178555f,
    1.04282129f, 0.27755508f, -0.11741871f, -2.48520136f, 1.29887319f, 1.64032876f, 0.65709132f, 0.92870849f,
    0.39875567f, -2.35073614f, 0.13565671f, -2.34897208f, 2.66158533f, 0.38583168f, -2.07307005f, 0.02085937f,
    -2.46330667f, -0.42650899f, 0.32432273f, 0.96159327f, 0.04081784f, 0.83426660f, -0.68147850f, 1.20905733f,
    2.13229489f, 2.39011717f, -0.91703510f, 1.29766226f, 0.38297126f, 2.19895434f, -1.29304004f, 2.07761359f,
    0.17756900f, 0.53992993f, 0.33022803f, -0.35256705f, -0.00746386f, -0.82756108f, 1.44394767f, -0.81374866f,
    -0.49260390f, 2.49841237f, -1.42764354f, 0.66146940f, -1.29111791f, 0.35862315f, 0.24450508f, 0.36993515f,
    -1.88809133f, -2.96286082f, 1.15864229f, 3.27552319f, -0.66683346f, 0.72079253f, -0.55538756f, -2.47255230f,
    0.44919944f, 0.04132688f, -0.98227352f, 1.45236504f, -1.23610568f, -0.26412570f, -0.32506543f, -2.26803446f,
    -1.69592690f, -2.08016944f, -0.98772103f, -1.15824676f, -1.30148816f, 1.23953676f, 1.17743599f, 0.98174065f,
    -0.68965900f, -0.17612952f, 1.25948191f, -1.50710976f, -0.71582276f, -1.28274858f, -0.76317358f, -1.37364173f,
    -0.67442471f, -0.09913195f, 0.01725042f, -1.97025192f, 0.03334548f, -0.56640625f, -1.28757608f, -1.47569656f,
    0.29397607f, -1.47444355f, 2.64767599f, 1.72138381f, -1.73448098f, 0.96149170f, -0.21624711f, -1.30932093f,
    0.40324590f, -1.11079895f, 0.05048411f, -0.20726913f, 0.40959910f, -1.43827033f, 0.07792997f, -1.06835425f,
    3.76825356f, 2.32298279f, 0.79258984f, 2.11566401f, -0.85412204f, 1.61955750f, -0.24820442f, 0.05702897f,
    -1.28369987f, -0.21700639f, -0.04225890f, -0.06827319f, -2.37098932f, 0.18982346f, 1.21734726f, 0.25389361f,
    -0.03884804f, 0.78372186f, 0.43281996f, -0.18974616f, -0.71861017f, -0.19792758f, 1.88829124f, 0.34345758f,
    -0.78278548f, -0.98364073f, -0.07221816f, 0.22864087f, -0.13639712f, 0.82543433f, 0.64303625f, 0.04445466f,
    0.98091358f, 0.02042363f, -0.98804879f, 0.39264724f, 0.02036634f, 0.05158690f, 1.92900407f, -0.42020833f,
    1.17446923f, 0.46851748f, -0.44125226f, 0.48593602f, -0.26693618f, -1.69936502f, -0.42092979f, 0.24084494f,
    -0.22597314f, -1.23552728f, 0.59867603f, 1.16243160f, -0.09422635f, 0.12868431f, -1.66136456f, -0.11369628f,
    1.40722883f, -0.19848193f, -0.19815937f, -0.01176378f, 0.30344635f, -0.41424319f, 0.56958020f, 1.24252212f,
    1.89610422f, 0.97699314f, -0.81307328f, -2.66512632f, -2.77509117f, 1.31329572f, -1.70295715f, 1.90653360f,
    -0.05752637f, 0.34445319f, -1.53052759f, 0.28067198f, 2.37879872f, 0.60523796f, 0.12321157f, 0.93418318f,
    0.97233814f, -0.36046410f, 0.27441463f, -0.74300116f, 1.17996216f, -0.12187316f, 1.65946412f, -1.23552740f,
    0.54149514f, -0.21410863f, -0.03368828f, -3.53314614f, -0.87258983f, 0.98009700f, 0.99503738f, -1.99928629f,
    0.04314743f, 1.29533792f, 1.32034993f, -0.79616654f, 0.03643908f, -2.44373775f, 0.26430991f, 0.42245558f,
    -0.70186585f, 0.78134614f, 1.36366212f, -0.26410207f, 0.35758635f, 1.25876081f, 0.02593029f, 1.99898040f,
    0.37356049f, -0.71171910f, -0.58497703f, 1.24005938f, -0.82806206f, 1.67901981f, -0.23687090f, 0.04377753f,
    -0.26799244f, 0.39938933f, -0.12979113f, -0.17600845f, 1.34525621f, 0.17394692f, 0.62485373f, -1.10962939f,
    -0.93216634f, -0.43713373f, 0.89749086f, 0.46492758f, 1.19630730f, 0.50544846f, -0.25123823f, -0.44491017f,
    -0.83655280f, 0.00723035f, -0.27112800f, -1.03496754f, 0.69145489f, 1.32563031f, 0.31732145f, 0.81895041f,
    -0.57622224f, 0.72474694f, -0.70820916f, 0.23434772f, 0.45326191f, -0.02539194f, -0.38176811f, -0.76739419f,
    -0.40623149f, 0.20090115f, 0.54663461f, 0.72408324f, 0.33560497f, -2.51942778f, -1.24929273f, 0.21587993f,
    0.03813032f, 0.18909530f, -0.31214267f, 0.76340377f, 0.50885594f, 0.74527895f, -0.18068895f, -0.78137326f,
    0.44024125f, -0.89431047f, -1.06250763f, 2.30046058f, 0.95338488f, 0.25274590f, -0.76202351f, -0.39542857f,
    0.25319570f, -0.50143754f, -1.58090341f, 1.20131052f, 0.27665177f, -1.02082241f, -0.01780625f, 2.36616421f,
    -0.54584867f, 2.59812355f, -0.13375241f, 0.33183634f, 1.00976670f, -2.73922324f, 0.82203943f, 0.21126242f,
    -0.84308255f, -0.14987697f, 0.93475705f, -1.37000501f, -1.20930600f, 0.54524022f, 0.11734364f, -1.25980651f,
    0.71233267f, 0.87558728f, -1.43070745f, -0.22348149f, 0.33661994f, -0.65037322f, 0.93865901f, 0.02145384f,
    -1.13717473f, -1.50004578f, 1.82233059f, 0.95689476f, -0.04172585f, -0.08488284f, 0.32874539f, 0.39605340f,
    -0.08391238f, -0.32272828f, 0.63793862f, -0.18613054f, 0.04080229f, 0.82760406f, 0.78164780f, -0.30528906f,
    0.04820926f, -0.81916547f, 0.33416477f, -0.13527204f, -0.08741813f, 0.49777737f, 0.73106438f, -1.26344275f,
    1.20738649f, -1.93314266f, 1.12398565f, 0.01045646f, -0.27825695f, -0.84096605f, -0.11360909f, -0.24128889f,
    0.87537789f, -1.32026541f, 1.19950235f, 0.48544797f, 1.12110329f, 2.22866106f, -1.45957911f, 0.19686502f,
    0.44731012f, 1.62357295f, 0.62175018f, 0.64712846f, 0.73383504f, -0.33494371f, 1.22048318f, 0.46259135f,
    0.95149076f, 0.45116845f, -0.06443401f, 0.12017050f, 0.33432633f, 0.38277173f, 0.67853773f, -0.12714654f,
    -0.96615034f, 1.98223805f, -0.37531853f, -1.13168561f, -1.61111414f, -0.11283788f, 0.01968427f, 0.11756112f,
    0.26396289f, 0.66935337f, 1.57989573f, -0.02726307f, -0.67596889f, 1.89278102f, 1.14019680f, 2.97294283f,
    0.98482525f, 0.16037633f, -0.42351052f, 1.46835363f, 2.17721391f, 0.38296768f, -1.28912365f, 0.76414144f,
    1.59873271f, 1.59271264f, 0.03675510f, 0.13668084f, 1.62126982f, 1.39238286f, -2.27881193f, 0.60498387f,
    0.03106923f, 1.59035611f, -1.24096930f, -0.26780826f, 1.43947351f, -0.96814394f, 2.47394204f, 1.34162843f,
    -0.84876978f, 1.31606734f, -0.30881304f, -0.29366624f, -1.83441973f, -0.44352847f, 0.57754439f, 0.09677114f,
    -0.36008000f, 0.85658205f, 0.24574855f, 0.84294719f, 0.35946581f, 0.71192038f, 0.58242798f, -0.21600765f,
    -1.62215281f, 0.57814914f, 1.48410475f, -0.42315444f, 1.28056097f, 0.48892710f, 1.72527707f, 1.41319466f,
    -0.76342678f, -0.14690298f, 0.54381400f, 1.02754807f, 0.31115657f, 0.17580348f, 0.59800774f, -0.28561702f,
    0.94624186f, 0.19606568f, -0.78923386f, -0.58555639f, 1.12648451f, -0.50901675f, -0.05615098f, 0.52018642f,
    1.00370836f, -0.30744410f, -0.98361295f, -0.15616867f, 0.56069809f, -0.71288979f, -0.49941075f, -0.56481212f,
    0.34202316f, -0.57349265f, -0.09451121f, -0.36453077f, 0.26543546f, 0.92806101f, -0.51879919f, -1.14780080f,
    -0.20491238f, 0.24238546f, -0.33420572f, 0.59274524f, 0.01312913f, -2.67646241f, -1.77552569f, 1.10696316f,
    1.13132441f, 0.18567817f, 0.24079920f, -0.33783942f, -0.11973644f, 0.93917525f, 4.23375082f, -2.31129670f,
    -0.09130666f, -0.70321184f, -0.69780147f, 1.71956873f, -3.63572264f, 1.61306381f, -1.34661758f, 1.32445610f,
    -0.38106328f, 0.62038481f, 0.82529944f, 2.76971149f, 1.52999401f, -1.12757337f, 0.85915369f, -1.64713228f,
    0.12532079f, -0.93860763f, -2.72975564f, -0.02358277f, -1.21545267f, -3.40489697f, 0.11002289f, -1.52743530f,
    -0.45086277f, -0.15479919f, 1.62108564f, 0.95107752f, 1.15273631f, 0.05858034f, -0.95534056f, -0.04462475f,
    -1.46656764f, -2.35254717f, 2.68107390f, -0.96788079f, 0.76685452f, -0.98069924f, -0.90761995f, 0.79513121f,
    -0.50011218f, 0.24325842f, 0.81506205f, 1.68250251f, -1.32975042f, -0.18118815f, 0.23700261f, -0.65915179f,
    -0.40280473f, -0.28873062f, 0.27552304f, -1.09159899f, -1.44239318f, -0.87804246f, -1.77791023f, 1.58998823f,
    1.89964819f, 0.96214098f, 0.65101284f, -0.75718439f, 0.54199207f, -0.28719252f, 0.35225543f, -0.98649544f,
    0.23396836f, 0.54245037f, -0.19305760f, 0.51332772f, -0.15944478f, 0.33932805f, -2.31789303f, -0.48009366f,
    -1.91185677f, 1.77099979f, -0.80744255f, 1.14183235f, -0.08507994f, 0.28577438f, -0.37358481f, 0.55484498f,
    -1.35537326f, -0.98131174f, 0.53788888f, 0.23549087f, -0.05912757f, -0.43780464f, 1.50228226f, 0.03125951f,
    -0.41359025f, -0.06653659f, -0.88436174f, 1.49998415f, -0.36871758f, 0.17370735f, 0.91080666f, -0.78652245f,
    -0.90023011f, 0.55485928f, -0.30829248f, -1.09141040f, -1.25091910f, -1.24032497f, 0.17679876f, -1.35509539f,
    -0.85833275f, -1.36194062f, -0.47307074f, -2.05712390f, -0.87378794f, 0.86061311f, 0.64496714f, 1.27731001f,
    -0.80252981f, -0.73318565f, -0.68129343f, -0.36485529f, -0.52658081f, -1.25349891f, -0.69084340f, 2.02259517f,
    -0.65181088f, -0.92174739f, -1.57884645f, 2.68024659f, 0.45532295f, 1.14438379f, -0.20142640f, -0.29409969f,
    0.16504663f, 1.23998022f, -1.36393261f, -0.31149983f, 0.80048645f, 3.00333166f, -0.28595361f, -0.43159261f,
    1.57710290f, -0.63397890f, 1.09720457f, 0.71709269f, 0.52747196f, 0.96607202f, -0.18528114f, 2.03728819f,
    -0.71352774f, -0.42674935f, -1.10204113f, 1.02315748f, 1.41704166f, -1.63811171f, -0.92292720f, -0.50642586f,
    -0.75898635f, 1.40238130f, 0.16397539f, 2.07327485f, -0.00467853f, -3.00791407f, -0.46907955f, 0.48967740f,
    -2.26566648f, 1.13474834f, 0.92346132f, -1.30422664f, 1.59616899f, -1.54313946f, -0.39823619f, 0.10150076f,
    -0.78586209f, 1.38771403f, -0.05908216f, -1.03178501f, 0.57586485f, 0.97605127f, 0.47305503f, -1.99683809f,
    -0.21843851f, -1.39009881f, -0.42503265f, -0.87827885f, 0.69674146f, 0.54975027f, -0.44642141f, -2.20238376f,
    1.07269871f, -1.16664028f, -0.49826929f, 0.65972370f, 0.02354016f, -0.11740693f, -0.64240170f, -0.08524098f,
    1.41669703f, -0.46693322f, 0.16326056f, 1.96920681f, 0.71421438f, -0.01985477f, 0.27278903f, -0.80626571f,
    -1.35817230f, 0.38350099f, -0.59571683f, 0.05909494f, -0.55875844f, 0.30277929f, 0.18267214f, 0.48463321f,
    1.44236565f, -0.02814152f, -0.39011446f, -0.13585885f, 0.33932769f, -2.03151536f, -0.30651787f, -0.60288393f,
    0.95548493f, 0.10636422f, -1.31182384f, 0.05795860f, -0.51189256f, 1.09832418f, 0.77437615f, 0.85758275f,
    -0.31294921f, -0.05183831f, 0.70426911f, 0.55244768f, 2.16182661f, -0.72621459f, -0.39829567f, 0.27611798f,
    1.02413619f, -0.59392482f, 1.23820055f, -0.86349630f, 1.27659309f, 0.52520466f, -0.10484844f, -0.17571400f,
    -3.30874109f, -2.46215582f, -0.01326561f, -0.06476038f, -0.33807820f, 1.70860291f, 1.19217503f, -1.92975605f,
    1.56014168f, -0.41711429f, -1.85086930f, 0.59001327f, -1.06379211f, -0.77058667f, 1.09643817f, -0.19131853f,
    -1.11205864f, -0.98478276f, 0.22428198f, 0.44673017f, 0.65558165f, -0.22783355f, -0.70090032f, 0.08030467f,
    0.43578261f, 0.48306584f, 0.15482272f, 0.87908745f, -0.60616833f, -0.01784346f, -1.10307419f, 1.53878343f,
    -0.68443614f, 2.02351189f, 0.78038973f, 0.99363124f, 1.40758359f, 0.01065270f, 1.64067662f, 0.68059659f,
    0.61623102f, -0.40279165f, 2.91084695f, 0.94698703f, 0.42685851f, -1.02954876f, -0.69909269f, -0.22119199f,
    1.10264730f, 0.92221361f, -1.30099940f, -2.45214915f, -0.57892096f, 0.42109722f, -0.41699916f, 2.06106639f,
    0.54985857f, -0.46534249f, 1.70695102f, -0.13794245f, 0.81480688f, 1.35797465f, 0.99385399f, -0.50098622f,
    0.34376109f, 0.22004591f, 0.59946525f, 1.11660969f, -0.30555984f, 2.18594694f, -0.76060849f, -1.45188141f,
    1.67510951f, 2.49550438f, 0.74962926f, 0.15002604f, -0.94919443f, -0.38156205f, 1.99087751f, -0.30036670f,
    -1.75739551f, -0.46400359f, -0.04216008f, 1.56726038f, -1.03842545f, -0.99876422f, 2.07566714f, -0.66906834f,
    -0.76541787f, -0.35391676f, -1.04014707f, 0.39479128f, -1.20591855f, 0.60056692f, 0.34892118f, 0.29009932f,
    0.72215885f, -0.16959631f, -0.38912132f, -0.64779955f, -0.26933661f, -1.34089112f, -1.94809663f, -1.67355037f,
    0.60075325f, 1.97489035f, 1.93609047f, -0.19715296f, 0.13290425f, -0.14485766f, 0.53183645f, 0.73091137f,
    1.02639723f, 0.32509592f, -0.91738439f, -0.70897454f, 1.09751475f, 0.19162931f, 0.28934857f, -0.32323909f,
    -0.20681833f, -0.00524679f, 0.88577896f, 0.01607143f, -0.76583356f, -1.62915647f, -0.02427970f, 0.86286998f,
    -0.75573909f, 1.12357736f, -0.41238722f, 0.00131911f, 0.34173885f, 0.99103302f, 0.54773831f, -0.26862332f,
    -2.01712966f, -0.89222115f, -1.26005769f, 1.26557374f, 0.43058997f, -0.02625042f, 0.15616697f, -0.43970540f,
    0.16586475f, 0.53769714f, -0.89580309f, -1.01130307f, -0.02218818f, -0.13194399f, -0.29820859f, 0.62936616f,
    -0.32807425f, -0.36182421f, 1.49017417f, -0.98344576f, 0.08371310f, 0.03192787f, 1.57758689f, -0.09204488f,
    -1.77857149f, 0.01835827f, 0.02400169f, -1.08952451f, 0.40395111f, 2.00168896f, 0.02753205f, 0.10924070f,
    0.41105047f, 0.25234759f, -0.38572267f, -0.66500610f, -0.08552937f, -1.41242957f, -0.30434889f, 1.87279832f,
    0.50570154f, -0.32401443f, 0.85312891f, 0.38426381f, 0.50245064f, -0.49545309f, -0.41278952f, 0.96332014f,
    -0.23530124f, 0.33441216f, -1.01808703f, -0.66359699f, 0.58926046f, -0.85208112f, -0.10814279f, -1.14207149f,
    1.35578203f, -0.20599274f, -0.93387741f, -0.05372994f, -0.90255529f, -0.10071543f, 0.91851014f, 0.96642238f,
    2.11349845f, -2.32117319f, -0.32221180f, -3.24059701f, 1.29403484f, -0.51594502f, -0.54846483f, -0.44015175f,
    0.10882301f, -0.70156401f, -1.27380192f, -0.23334394f, 0.98503071f, -0.45017073f, -2.15232086f, 0.20977642f,
    0.23446795f, -0.58127260f, 1.48204768f, -0.10228057f, -1.13115466f, -1.41514039f, -0.07633617f, -1.03451920f,
    0.53606021f, -1.21912956f, 1.34606135f, 0.35191670f, -0.56801146f, -1.85440111f, -0.03413002f, -2.39719558f,
    -1.38501036f, 0.50203431f, -0.21673205f, -0.30258992f, 0.05595786f, 0.11149342f, -0.03091345f, 0.50778198f,
    1.09349751f, 0.76175946f, 2.81414247f, 3.26579452f, 1.66825163f, 0.47048804f, 2.61235094f, -1.00739396f,
    -0.51507854f, -3.29404974f, 1.07695425f, -0.28207090f, 0.56947601f, 1.26418591f, 0.14637505f, 1.43088305f,
    -1.13528001f, 0.51706505f, 0.72384799f, -1.31118011f, -1.66321111f, 0.58420771f, 1.36266935f, 0.35227588f,
    0.53117907f, 0.53518796f, 2.36818886f, 0.36892742f, 1.14901459f, 0.85703152f, -1.87044275f, 1.65762877f,
    -0.08697753f, -0.53576618f, 0.72479367f, 0.16164428f, -0.01091147f, -0.33704856f, -0.54794645f, 0.34800330f,
    0.30130997f, -0.36885694f, -0.12072187f, 0.02183477f, -1.05862820f, -1.32821000f, 0.42818487f, -0.19785273f,
    -0.49161023f, 0.39667577f, -1.10677457f, 1.29901755f, 0.78913915f, -0.52518612f, -0.72350103f, -0.63422066f,
    0.40591255f, -0.35515830f, 0.76289535f, 2.27339339f, 0.48644635f, -0.78005737f, 0.25057018f, -0.93694818f,
    0.30370331f, 1.24418473f, 0.87049294f, 0.41162106f, -0.97620976f, 0.67906773f, -2.31173563f, 0.91856688f,
    -0.65692431f, -0.15417989f, -1.57039785f, 0.44489074f, 0.57962549f, 0.97784352f, 1.48174191f, 2.42641258f,
    0.33690277f, 0.47168565f, 0.19477616f, -1.00030637f, 0.42706794f, -1.98995459f, 1.12490201f, 0.75234532f,
    2.97388554f, 0.61217022f, 0.01694459f, 2.10110307f, -1.08791101f, -1.09860981f, 0.52056044f, 0.28309578f,
    0.75293487f, 1.55957949f, 1.67743778f, -1.14191532f, -0.56822771f, -0.19032083f, -1.40549314f, 0.40106744f,
    -1.27420592f, -0.72042078f, 0.86108047f, 0.01021301f, 3.13511443f, 1.06356406f, 0.60383254f, 0.33318013f,
    1.37311840f, 0.52749455f, -0.82793581f, -0.72491276f, 0.30917144f, 1.20511317f, -0.18448085f, 1.20550132f,
    0.70081377f, -1.60470808f, 0.03310874f, 0.44992179f, -0.58761454f, -1.75875533f, 0.89686233f, 2.96430826f,
    0.06535407f, -0.38173386f, -0.52734661f, 2.25679040f, -1.97923017f, -0.00092308f, -0.12871747f, 1.11646998f,
    1.65983248f, 0.26363343f, 1.45896292f, 0.90206605f, -0.10259943f, -0.23602444f, 0.17478779f, 0.02769518f,
    -3.42011094f, -0.86206561f, -0.87779188f, -0.24388431f, -0.02642237f, 0.26241422f, 0.75022554f, -0.16224794f,
    -0.35166818f, 1.00056088f, 1.51697981f, -1.49851489f, 1.53431618f, 0.18615891f, 0.62677753f, 0.56074882f,
    0.05678973f, 0.59682614f, 2.59892941f, 2.98292089f, -0.99176848f, 1.16658652f, -0.52451557f, -0.19715983f,
    0.01748219f, -1.55435061f, 0.39537382f, 1.03828108f, -3.04866910f, -2.42435455f, 0.33915073f, 1.78536403f,
    -1.16674864f, -2.51634717f, 1.84762442f, -1.48966920f, 2.82995534f, 0.27688730f, 0.56275100f, -0.62736034f,
    -1.71975291f, -0.56662291f, -0.99779975f, 0.20764165f, 3.27240634f, 3.24201584f, -1.42245722f, -0.70016390f,
    -2.54429221f, 2.77889729f, 2.27329826f, 5.57246971f, 1.65145588f, 0.15851362f, 0.12179118f, -1.49983501f,
    -0.89253896f, -1.22401202f, 0.39723518f, -1.25108659f, -1.22289479f, 0.09394755f, -2.09871387f, 2.82456827f,
    1.01500010f, -0.47396740f, 0.39736551f, 0.62578762f, 0.08496172f, 0.98387986f, -2.26742053f, 0.00317632f,
    -0.98263186f, -0.36969158f, -0.14373875f, 0.31043538f, 2.64053464f, 2.24551439f, -2.07267499f, -0.51567137f,
    0.52292377f, 0.28482148f, 0.29645953f, 0.27116400f, 2.15223908f, -0.30866581f, 1.82033515f, 0.17675215f,
    -0.40281114f, -0.94291276f, -0.84746468f, 0.01457727f, 2.04706359f, 0.87009424f, 1.49472713f, 2.28305674f,
    -1.12746084f, -1.80364692f, -0.76350206f, -3.97449851f, 1.33750582f, 0.22570942f, -1.50833809f, -1.58572030f,
    -2.10977507f, -0.25789991f, 0.27184686f, 0.71368569f, -0.40042818f, 0.04162375f, -1.19274378f, -0.03196635f,
    0.44120294f, 0.14805557f, 0.09279160f, -0.18651709f, 1.16901898f, 0.67243612f, -1.42518938f, -0.81404448f,
    -1.16821289f, 0.23955035f, 0.66434616f, -0.48806697f, 0.64052898f, 0.43626258f, -0.38319591f, 0.19242400f,
    -1.31200433f, -0.13655275f, -1.97455215f, -1.43639112f, 1.17265463f, -0.33287582f, -1.91272974f, 2.20231700f,
    -0.96570939f, -0.21976715f, 0.97685808f, 0.54770565f, 1.42794037f, -1.86177719f, 0.45149139f, 0.88124514f,
    -0.21085149f, 1.22285700f, 0.55018687f, -1.49376082f, 0.71100461f, 0.36566165f, -0.73655379f, 0.92087322f,
    -0.48263872f, 0.43522194f, -0.37667322f, 0.75338370f, 0.13320461f, -2.16544557f, -0.57943863f, -0.72818100f,
    0.04848747f, 0.50339234f, 0.25857940f, 0.72913921f, 0.09283005f, -1.01332450f, 1.97025347f, -0.49710426f,
    0.47363931f, -0.21344464f, 0.19819945f, 0.37346855f, -1.61649013f, 0.28215718f, 0.60785007f, 0.17578469f,
    -0.94837886f, -0.94317001f, -1.13165259f, -0.52307111f, -1.26860273f, -1.91247344f, 0.83157325f, 2.10732007f,
    1.13258541f, -0.25760987f, 0.00156829f, -1.11425185f, -0.31961110f, 0.43916634f, 0.38257951f, -1.09887004f,
    1.52064371f, -1.34720647f, 1.03376079f, 1.80755699f, 1.87432146f, 0.34520856f, 0.89707136f, 1.07572746f,
    1.86063421f, -0.25016236f, -0.00447348f, 0.65733033f, 1.67641616f, -0.07678224f, -0.98533869f, 1.03255987f,
    -1.50159419f, 3.20259881f, 1.18068433f, -1.85493302f, -1.63904548f, 2.94219303f, 1.08275139f, -1.61992502f,
    0.46384260f, -1.30803728f, -0.64326209f, -0.88967353f, -0.00619059f, -0.60110813f, 2.04264355f, -0.08183785f,
    2.61256766f, -1.12918401f, -1.46088588f, 0.57052159f, 1.80400860f, 1.70012307f, -2.22991395f, 4.00935459f,
    -0.81831944f, 0.07119768f, 1.89386630f, 2.16724730f, -0.54071170f, 3.25460362f, 0.40092638f, 0.68926167f,
    -0.49800551f, -0.05992111f, 1.07256818f, -0.96887618f, -0.81967789f, -3.44839406f, -0.31841218f, -0.02997836f,
    0.47790542f, -1.27895415f, 0.05885918f, -0.40889201f, -0.28605932f, -0.26193199f, 0.00093049f, -1.50196779f,
    0.11506356f, 1.38432586f, 1.76801860f, -0.02906072f, 0.06801503f, -1.11618865f, 0.59962517f, -2.71486902f,
    -0.57837844f, -1.29049480f, 0.41078633f, -0.17578673f, -0.38305092f, 0.06323725f, 0.69158572f, 0.82377261f,
    -0.25850192f, 0.83306336f, -0.77491301f, -0.05583482f, -0.85760522f, -1.53238416f, 1.56367373f, -0.87439364f,
    0.03225392f, 0.16290937f, -0.05720230f, 0.77851272f, 0.42532331f, -0.45345613f, -0.57122654f, -0.05975805f,
    -0.03143540f, -1.88959873f, 0.49221599f, -0.54406172f, 0.02862556f, 0.23431937f, -0.04639908f, 0.25742376f,
    -0.62993467f, 0.26387885f, -0.85783160f, -0.26772422f, -0.98515666f, 0.78354448f, -0.36085087f, 0.58993959f,
    -1.02770960f, -0.88358295f, 0.99734128f, 0.59220505f, 0.55366367f, -0.01132934f, 0.88732302f, 0.47670799f,
    -0.24506262f, -0.65908229f, 0.21288916f, -0.15672301f, -1.46178126f, 0.54068810f, 0.43300506f, -0.24132966f,
    2.54578662f, -0.60774380f, -0.49876001f, -0.19059308f, 0.69234496f, -2.19106245f, -2.35876656f, -0.24267848f,
    1.49003184f, 0.02790265f, 1.01778448f, -0.68109035f, -1.21883750f, 1.38863647f, 0.25058836f, 0.69954085f,
    -1.05782914f, 1.50194716f, -1.40040720f, 0.19616619f, -0.17769720f, 0.65993172f, 0.32481933f, -1.26910889f,
    -1.22683299f, 0.26063231f, 0.46830478f, -0.16217452f, 0.03030087f, 0.47376618f, -0.19442765f, -0.56129235f,
    1.21673369f, 0.50649559f, -0.15571627f, 0.71419674f, 1.36132145f, -0.69716293f, -0.37647805f, -0.10703093f,
    1.74222732f, -0.41264158f, 0.57836252f, 1.63493514f, 0.83299685f, -0.20915484f, 0.80465060f, -1.72358894f,
    -0.09660120f, 1.35446346f, 0.64215809f, 0.77932239f, -0.10636254f, 3.09042335f, -0.16339841f, 0.18382628f,
    2.15337467f, -1.54306340f, 1.78488481f, -0.94340700f, 1.58640528f, 0.42230147f, 0.59654731f, -0.64214909f,
    2.36400938f, 0.41132677f, 0.61719882f, -1.71953404f, 0.61194426f, -0.83829612f, -0.18795665f, 4.90408134f,
    2.85589147f, 0.28957540f, 1.68691909f, 3.56744456f, 1.90186131f, -1.73947906f, -4.12626123f, 0.22535917f,
    -0.35525036f, 3.05537748f, 1.16168249f, -1.18941581f, -0.65437716f, 1.24678230f, 1.06085277f, 2.82309818f,
    3.58702946f, 0.21043731f, -1.32935011f, 0.91984993f, 1.32618725f, -0.04056612f, 0.64079195f, -0.40572399f,
    0.91424429f, -1.45218134f, -0.53835881f, 1.06408286f, 0.50176036f, -0.32449299f, -0.75949508f, 0.20296925f,
    3.11197281f, -2.32736588f, -0.60025036f, 0.19969887f, 0.44352132f, 0.14239490f, -0.54925674f, 1.05897439f,
    -1.57463980f, -0.08421852f, -0.62225455f, -0.11568721f, -0.65580410f, -1.05079830f, -0.73688412f, 0.23857066f,
    0.47390074f, -0.56650233f, -0.16483523f, -0.15754557f, -2.66537499f, -1.34733319f, -0.78285152f, 0.70924431f,
    0.13668963f, -1.01553917f, -0.38232735f, -0.48166281f, 1.00257313f, -0.37153381f, -0.10554609f, 0.72848350f,
    -0.09094649f, 1.19992399f, -0.21978906f, -2.05860066f, 0.55337936f, -1.91626740f, 1.15298212f, -1.11274326f,
    1.88603485f, 2.51123047f, -0.21708956f, 0.60091305f, 0.15880062f, 0.64513689f, -0.87527919f, 0.94177717f,
    0.91896981f, 3.38762569f, 0.33131307f, 0.33509463f, 0.86166215f, 0.32303187f, -2.34517384f, 2.50077271f,
    -0.40489301f, -1.49565744f, 0.66143066f, 1.60358644f, 0.78421086f, 1.13062525f, 1.50117946f, -0.38564315f,
    -0.99007899f, 0.77298170f, -0.24759914f, -1.22747397f, 0.89323789f, 0.74879837f, 2.19642448f, -0.40444443f,
    -0.57426667f, 0.94135904f, -0.48875090f, 1.02946389f, 0.22759460f, 1.57700348f, 0.26118162f, -1.72486305f,
    -0.14595595f, -0.50125808f, -1.00360596f, 1.08949280f, -0.91016513f, -0.52507448f, -0.15276000f, 0.03536423f,
    2.05463529f, 0.89722162f, 0.56509799f, -0.15186863f, -0.22810002f, 0.02216302f, 1.74561751f, 1.57174432f,
    1.35176897f, -0.05314252f, -1.44217873f, 0.60552627f, 1.03519630f, 0.54555851f, -0.66556144f, 0.41099346f,
    -1.65680969f, 0.90446872f, 0.26366067f, -0.64217287f, 0.02323559f, -0.30155769f, 0.61764723f, -0.97416925f,
    0.33829513f, 0.74682337f, -0.79007941f, -1.96087289f, -0.04943573f, 0.70862705f, -0.02322097f, -0.04692967f,
    -1.11934078f, 0.98384291f, 0.73645478f, -0.60927582f, -0.05868546f, 0.26973593f, 1.23915732f, 1.39577687f,
    -0.76187080f, 0.32146230f, -0.12732467f, 0.41678861f, 0.78457391f, 0.16771547f, 0.36256328f, -0.59400481f,
    0.48341638f, 0.30048075f, 0.61642683f, 1.42560732f, 0.73842335f, 0.59395480f, 1.28420317f, 0.00395860f,
    -0.08171592f, -0.77951765f, -0.79665810f, -0.46342385f, -0.68241239f, -0.18842244f, -1.77135265f, -0.35859072f,
    0.84056669f, 0.03948705f, 1.38231885f, 0.52413356f, 0.01136512f, -0.60398299f, -0.71125001f, 2.01438379f,
    0.99036890f, -0.38928148f, -0.16628574f, -0.13653329f, 1.72634304f, 1.40159023f, 0.38798004f, 1.77851284f,
    -0.01510402f, 0.05084565f, -0.75483066f, -1.50332975f, 0.08039574f, 0.56025958f, 0.94212657f, -0.21633287f,
    1.49933827f, 0.26335779f, -2.63144016f, -1.04444706f, -0.03725967f, -0.02729923f, -0.17438354f, 1.52432120f,
    2.60933256f, 0.81005156f, 2.13581705f, 0.81804436f, -1.65084839f, -2.10782027f, 0.40467370f, -1.04839325f,
    0.95316726f, -0.88226014f, 1.11795139f, -0.00243730f, -0.18723647f, -1.00764704f, 0.15426107f, 0.84059739f,
    0.91418260f, -3.33373117f, 1.35519576f, -0.67889267f, 0.52044165f, -0.58102524f, 0.03755672f, 1.80385005f,
    0.04664543f, -0.63817567f, 0.42696306f, -0.14178635f, -0.51090574f, -0.52035379f, -1.80553281f, -0.70799631f,
    -1.55747354f, -0.06058101f, -1.63550067f, -1.18865287f, -2.32576585f, -0.34610644f, -1.25955355f, -0.34095943f,
    -0.33289903f, -1.49779236f, 0.51287377f, -2.94795275f, 1.11551440f, -1.17782974f, -1.14943910f, 3.45773745f,
    -0.11263040f, 0.03240847f, -0.17866369f, -2.61148286f, 0.46711570f, -0.41893852f, -0.00213554f, -1.28669000f,
    -1.33683300f, -0.93036169f, 0.69021726f, 0.26142690f, -0.29890543f, -0.14890152f, 1.23242462f, -0.92674404f,
    -0.32940763f, 0.03399371f, 0.02032234f, -2.00624943f, -1.75700057f, 0.31277993f, 0.68718129f, -0.34634092f,
    -0.93498504f, -0.29129207f, 1.30576146f, 0.67815316f, 0.01996661f, -0.79067171f, 0.40354007f, -0.48171467f,
    -0.91841191f, -0.01442538f, -0.08299122f, 0.49105561f, 0.13514812f, 0.58402914f, 0.46008435f, -0.01640638f,
    -0.21023522f, 0.33043173f, 0.84836102f, -0.29528973f, 0.74937856f, -0.79028219f, -0.56891477f, 0.05181440f,
    1.07343543f, 0.40228471f, 0.66525805f, -1.29129124f, -1.06225836f, -0.28158116f, -0.53835177f, 0.62235296f,
    -0.03152112f, 0.54424065f, 2.22857976f, 2.20258617f, -0.05259640f, 1.72813022f, 1.49675715f, -1.25146747f,
    -1.01247656f, -1.17090273f, 0.54627424f, -0.05895110f, 2.65747571f, -0.97901535f, -0.43039057f, -0.89703953f,
    0.54158092f, 2.04571819f, -2.29228473f, 1.83894622f, -0.20059539f, -1.27873540f, -1.26580906f, 2.44252419f,
    -1.85699713f, -1.57065201f, 0.85550100f, -1.46968174f, 4.01632833f, 0.85878927f, -0.89801651f, -2.04544067f,
    0.02349691f, -1.07673395f, -2.51425505f, -1.58297014f, -0.96407717f, 0.21783419f, -1.02681923f, -2.03882980f,
    0.81678331f, -1.64467812f, -0.36831358f, 0.20500566f, 1.41784763f, -0.19268753f, -0.98543304f, -1.12536776f,
    1.42921126f, -0.86576223f, -0.09165107f, 1.91618657f, -0.25936711f, 0.42034233f, -1.57002568f, 0.97501743f,
    0.20038341f, -0.01836964f, 1.08899188f, 0.51543367f, -1.64522910f, -0.47043848f, -2.17193270f, 0.57591116f,
    -2.06224728f, 0.52916169f, 0.01233395f, -1.48957336f, 1.79417324f, -0.63643146f, 0.03185988f, -0.67704821f,
    0.87082076f, -1.94592142f, 1.39862430f, 0.18502012f, -2.71962261f, -0.33742484f, -0.49376246f, 0.64090759f,
    1.27955151f, 0.54887170f, 0.50061023f, -2.99782920f, 0.53055662f, 1.02929354f, -2.11914706f, -0.42624047f,
    -0.10037176f, 0.23340751f, 0.82965279f, -0.86425871f, -1.25253463f, -0.12773857f, -2.30815220f, -0.96752328f,
    1.23206365f, 0.79698306f, 0.75956726f, -0.44497913f, -1.02413750f, 0.14250606f, 0.24920571f, 4.08966017f,
    -0.37369552f, 0.82502067f, 1.54337263f, 0.47736266f, 0.47688541f, 0.73610944f, -2.26671696f, 1.31974661f,
    2.22718978f, -0.62993580f, -0.67961127f, 1.24635899f, -0.98417401f, -2.97546554f, 0.13220790f, -0.09477460f,
    -0.02935315f, 0.18835360f, 0.23603551f, -0.28635913f, 0.49623001f, -1.62813318f, -1.40814507f, 0.70676607f,
    0.22709009f, 0.00261021f, -0.07949143f, -1.89645326f, -0.62192845f, -0.11798521f, -0.21072507f, -1.71165633f,
    -0.68917406f, 0.75754881f, 3.25452709f, 0.52838141f, 2.90107393f, 0.62583303f, 2.62316656f, -0.90858680f,
    -1.50417352f, 2.66684341f, -0.21093421f, -1.82788432f, 2.14977694f, -2.84342146f, -0.86952823f, 2.10962248f,
    -1.25058615f, -1.24594975f, 1.81965852f, -1.10722184f, 0.64001596f, -1.65996218f, 2.56350422f, -2.16962028f,
    1.16606617f, -0.21206829f, 0.06944827f, 0.80932504f, -1.04877806f, -0.57829678f, 1.62449026f, 0.11108693f,
    -0.08210511f, -0.16410899f, -0.02825554f, 3.71128440f, 0.34243688f, 0.62629759f, -0.51589954f, 0.96510339f,
    -0.76898271f, 0.82998627f, 0.16017869f, 0.45136693f, -0.00979964f, -1.60665667f, -0.90114743f, -1.18919158f,
    -0.03516201f, -0.14752904f, -0.11991972f, 1.96754932f, -1.66185367f, 0.86333287f, -0.55347961f, 1.17920816f,
    1.32533562f, 0.77506346f, -0.47043779f, 0.33413804f, -0.63950771f, 0.39145041f, 0.42485356f, -1.20699894f,
    1.36469841f, 0.14495271f, 1.47611642f, -3.54126096f, -2.88809681f, -0.55245876f, -1.34086120f, -4.40988064f,
    -0.14552239f, 0.00796918f, 3.82872033f, -0.55487889f, 2.11687827f, -1.65050769f, -0.20496881f, -2.58879662f,
    -1.39564967f, 2.16045165f, -1.15462816f, 2.90610576f, -0.19263652f, 1.33723819f, 0.32610536f, 4.14964151f,
    -3.34793234f, 0.43760142f, 1.26544499f, 0.63944685f, 1.59805071f, -0.07453207f, 1.42053616f, 0.43828040f,
    -1.68271685f, 0.37336999f, -1.54004121f, -1.07088637f, 2.90435171f, -1.35378861f, -2.50389481f, -2.04340148f,
    0.82099450f, 3.51315832f, -1.72918892f, -0.02316062f, 1.53355968f, -1.03312278f, -3.00790906f, -2.55057216f,
    2.93622184f, 1.45691061f, 0.71492332f, 0.45967984f, 0.55707067f, -0.81347114f, 1.15953565f, -0.10873447f,
    -0.49630564f, -0.23145089f, -0.16784254f, 0.74976861f, -0.55529815f, 0.28911200f, -0.19179857f, 0.30785990f,
    1.20969248f, 0.21169366f, 1.69654274f, 0.14973852f, 0.48811939f, 2.02277184f, 0.65523177f, 0.78034437f,
    0.80215293f, -1.45768297f, -0.40163764f, 0.54651356f, -0.21553273f, 0.35811436f, 0.11528098f, 0.84793580f,
    -0.13927054f, -0.51306015f, -0.22362977f, -0.55896270f, -1.39610326f, 1.92281389f, -0.78924763f, -0.79154682f,
    -0.12141397f, -1.18544805f, -0.26003522f, -1.96751273f, -2.03122640f, -1.15458155f, 0.09722506f, 1.18105197f,
    0.49728715f, -1.04303467f, -0.07655605f, 0.24298374f, -0.50506604f, -1.86888552f, 0.35772577f, 0.14159632f,
    1.73510611f, 0.00308593f, -0.52542776f, -1.38127518f, 0.66810673f, 0.06591941f, 6.25737524f, -0.38182622f,
    3.64809799f, -1.10819960f, -2.35893393f, -2.10500598f, -1.48682559f, 0.85770202f, -1.89740288f, -1.28769016f,
    -2.02092099f, 0.62427139f, -1.34513605f, 2.00544286f, 0.76562846f, 2.79558778f, -0.98158324f, 2.17754602f,
    0.73666507f, 0.93614119f, 0.33258778f, -2.49389482f, -0.15659009f, -0.18298827f, 1.38970840f, 2.14904046f,
    -0.74677247f, 4.75459719f, 2.00578976f, 5.02393770f, -2.35616946f, -1.76299548f, 1.81267810f, 2.53936911f,
    1.46316683f, -0.33431816f, -1.96644676f, -0.31622896f, 1.63281584f, -0.97201216f, 0.45270497f, -0.16551892f,
    3.45293593f, 1.63964176f, -1.85346103f, 0.59610260f, -0.19357966f, -0.38714194f, -0.54513752f, -0.06631041f,
    -0.92809272f, 0.51000154f, -0.89420652f, 1.56498265f, 1.22089636f, -0.27185339f, -0.46962029f, -1.40973794f,
    2.56487775f, 0.17904396f, 0.59593683f, -1.17493033f, 0.60566628f, -1.32793510f, 0.41436338f, -2.19842815f,
    -1.48256803f, 1.80100501f, 1.58343649f, 0.74200320f, 0.60100782f, -0.50147122f, -0.42507792f, -2.14272976f,
    -0.67796022f, 0.09526845f, -0.02635542f, -1.27983570f, 0.58889294f, -0.05872821f, 1.27832270f, -3.07076240f,
    -2.55611682f, 1.02808511f, -0.34745923f, 1.17306268f, 0.26606601f, 1.10600698f, -0.23932303f, 0.83239746f,
    -1.82128620f, -0.90016776f, -0.30328509f, -1.54113054f, 0.59739065f, -0.23942332f, 1.32970679f, -0.29155657f,
    0.92611831f, -0.49913353f, 1.36601412f, -0.55059701f, 0.12868769f, -1.29734921f, -2.47777152f, -0.55801141f,
    -1.08323193f, -1.03620803f, -0.60630542f, 1.26651943f, -0.89874607f, 2.25884247f, -0.27728981f, 1.66653013f,
    0.90397322f, 1.62110078f, -1.14269125f, -0.96145713f, 1.12851346f, 1.10215998f, 0.33315387f, -0.86117136f,
    -1.49582851f, -0.64897621f, -0.88020140f, -0.51990211f, -0.93330491f, 1.04150331f, -0.52208298f, -1.15555680f,
    0.72888881f, 0.83715135f, -0.51328903f, -1.89769936f, 0.94692445f, -3.07083154f, -1.41712451f, 0.79671216f,
    0.81496376f, -1.05311096f, 0.58584559f, 0.83376807f, 3.16895247f, -2.20819068f, -1.48245311f, 1.70805252f,
    0.96738380f, -3.66453385f, -0.09570819f, -0.76363868f, 5.18018961f, -0.96971679f, 2.60219002f, 0.52706444f,
    0.75774884f, -2.43960476f, -2.28648353f, 3.96298862f, -0.32295197f, 0.39328164f, 0.90242237f, 2.47453022f,
    1.09749794f, 4.92750406f, -2.55870795f, -1.94847131f, 6.02818155f, -0.81955892f, 2.54371810f, -1.37071192f,
    -0.02181368f, 1.48124158f, -0.26945311f, 1.21418071f, 0.46342078f, -1.31500268f, 0.35471085f, -0.33735585f,
    2.40330553f, 1.20372117f, 0.08815385f, 0.57354778f, 2.16947079f, 1.53490829f, 1.93085873f, -1.30304921f,
    -2.07913113f, -2.71232891f, 1.96244085f, 1.50923264f, 0.79579985f, 2.57795262f, 1.33543253f, -0.12158951f,
    0.41757980f, -0.99648690f, -1.07764399f, -2.28000689f, 1.76952529f, -1.01664042f, 1.50172603f, 3.76031542f,
    2.14342451f, -2.49141097f, -0.21911094f, -0.53828990f, -1.10668743f, -0.30174342f, 0.48001468f, 1.05666912f,
    -1.88017809f, 0.39459997f, -0.35884637f, 1.05388200f, -0.03408250f, 0.98040843f, 1.03825986f, -2.30167890f,
    2.38286924f, 0.38935548f, 1.18877459f, -0.46089453f, -0.41420588f, 0.07817286f, 1.36588311f, 0.78880930f,
    3.52452493f, 0.99212033f, -0.34027138f, -0.86022478f, 1.23985779f, 1.18122125f, 2.08865690f, -1.71587706f,
    0.91711122f, -0.54006791f, -3.60113835f, 2.00487638f, 2.15916467f, -2.04984260f, 0.49233115f, 2.04376268f,
    1.56787205f, -0.66397142f, 1.40142787f, -1.93950534f, 0.70714688f, -0.47786266f, 0.09894552f, -0.21935284f,
    -1.60457194f, -0.73334551f, 1.36076903f, -1.03937232f, 1.49834347f, 0.31166983f, 1.03932536f, 0.56219798f,
    -2.74570155f, 0.04145281f, 2.06230497f, 1.57090020f, 0.12970382f, 1.18590474f, -0.97653013f, 0.11189746f,
    1.68069172f, 0.03296204f, 2.56900930f, -1.58002758f, -0.47873965f, 0.34041965f, 1.21767950f, -0.60849220f,
    -1.79871011f, -1.20279288f, 0.14923815f, 1.16547835f, -1.74045396f, -1.74174070f, -1.40224183f, 0.63841832f,
    1.52728152f, -0.15936193f, 1.91296756f, -1.87567890f, -0.19902363f, 1.11127007f, -0.08490275f, -0.20934142f,
    0.35767341f, -0.75119245f, 0.24269262f, 0.09058092f, -2.79545331f, 0.40339214f, -0.07018997f, 0.36535892f,
    0.66081715f, -1.48514140f, 1.23859227f, 0.45072722f, -0.33193213f, 0.30675408f, -0.31234992f, 0.18161128f,
    0.01233023f, -0.57277763f, 0.19017896f, -0.25762436f, -0.56871182f, -1.45889974f, -0.55515647f, -1.02764881f,
    0.63951111f, -1.18993866f, 1.20245469f, 1.63397098f, 0.69004226f, -0.03520466f, -0.51465058f, -1.41345906f,
    -0.54626906f, -0.58582973f, -0.41029772f, 0.27103984f, -1.18953562f, 0.46908462f, 0.32988796f, 0.07746064f,
    0.07249100f, 0.53505200f, 0.78837210f, -0.32301599f, 0.27395099f, 1.18201220f, 1.14413357f, 0.97779483f,
    -0.24988243f, 1.02981329f, -1.05103469f, -1.46687603f, -1.92035842f, 1.17860162f, 0.49532375f, 0.65687561f,
    0.66215235f, -0.15303200f, 1.06362975f, 1.14031911f, 0.86030948f, 1.43287325f, -0.64359587f, -0.99347919f,
    0.91148764f, -0.50417215f, -0.45540699f, 0.87602818f, 1.17107368f, -0.63542044f, 0.38950661f, 0.91798270f,
    -0.55856079f, 0.11230426f, -0.63191307f, -0.86116183f, -0.91037154f, 0.08358914f, -1.36922193f, -1.62704122f,
    1.00259030f, -0.85734296f, -0.42612335f, -2.47626948f, -1.07229650f, -0.88029957f, -1.52874851f, -0.31152707f,
    -0.34556368f, 0.36800632f, -0.21498208f, -0.44421098f, -0.19824584f, 0.07713135f, -1.04286897f, -0.31989643f,
    0.64706624f, -1.79133916f, 0.43779916f, 1.10589969f, -0.69741940f, 0.54490560f, -1.01937532f, -1.62502337f,
    0.96239138f, -1.00252032f, -0.82432258f, -0.08806854f, 1.06867850f, -0.12604730f, -0.05885554f, 0.98349005f,
    1.19894016f, -0.80014789f, -0.65616965f, 0.17471653f, -0.62368208f, -0.47238299f, -0.70229071f, -1.01239455f,
    -0.01786952f, 2.17677283f, 0.91518098f, -2.81166983f, -2.41973996f, -0.35938132f, -1.29236317f, -0.53715110f,
    0.36144236f, -0.57302827f, 1.21344650f, -1.38701761f, -0.20156100f, 0.40807253f, -0.37085843f, 0.46907192f,
    0.50313628f, 1.89407682f, -1.40271437f, -0.01687779f, 1.55881345f, -0.39976668f, 0.62687904f, -0.33393028f,
    -0.09454551f, 0.33921176f, -0.49241275f, 0.90114564f, 0.83614808f, -0.47559837f, -0.65004760f, -1.58298624f,
    1.13275349f, 3.08316088f, 1.60459960f, 1.03602314f, 0.87920457f, 0.57567245f, -0.36684069f, 0.71930778f,
    -1.47525096f, 0.08108353f, -0.08117443f, 0.95002925f, 0.94248933f, -0.13314606f, 0.47429958f, 0.39518476f,
    -0.06464417f, 1.66446829f, 0.22859386f, -2.18772793f, -0.22347906f, 0.19326003f, 2.74421763f, -1.44577610f,
    -0.01188835f, -1.28460908f, -0.77973497f, -0.14389780f, 0.36777651f, 0.82154036f, 0.85389310f, -1.07761073f,
    0.20867173f, 0.47333986f, -2.22892213f, 0.03034680f, 2.18732715f, -0.96274841f, 1.01297760f, -0.15198202f,
    0.30039629f, 0.61987323f, 0.19921085f, 1.43569946f, -0.57945764f, -0.96045458f, -0.52524370f, 0.43420276f,
    0.12477810f, -0.02773465f, -1.54530931f, 0.67364615f, 3.28987408f, -0.22982363f, -1.82190216f, 1.89818859f,
    0.76540536f, -1.74647725f, -3.76399016f, 2.08910584f, 0.54818076f, -3.93373346f, -2.63617086f, -0.54983962f,
    0.51196676f, -2.51215959f, 0.41184303f, 0.71542382f, -0.60280007f, -5.33521032f, 2.83174944f, 0.49619529f,
    2.01447058f, 1.45924711f, -1.23035920f, -3.43621516f, 1.11876607f, 1.30340302f, -0.82037240f, -0.30128026f,
    -1.01583290f, 1.47789478f, -2.24106240f, -0.93805599f, -1.91593540f, -1.84507120f, 1.69519484f, -0.08030799f,
    -0.74063581f, 1.38884199f, -0.60192734f, -1.65943134f, 0.22953872f, -0.30807078f, -2.50849986f, -0.54322278f,
    1.06561685f, -2.54416919f, 0.40090922f, 1.23950624f, -0.02979890f, -0.70719486f, -0.53559035f, -0.94453448f,
    -0.80813915f, 1.51498723f, -0.76270336f, 0.12025415f, -0.11913735f, 0.29516986f, -0.33081385f, -1.36667800f,
    0.24059412f, 0.83468354f, -1.21128559f, 0.30728528f, 0.37441772f, 0.53392392f, 0.19232851f, -0.37074333f,
    -1.79495287f, -0.39711827f, -0.36354679f, 0.71283060f, -1.76594102f, -0.17968869f, -0.40955105f, -2.61023974f,
    -1.83871722f, 0.94644338f, -0.92766351f, 0.23195706f, -1.91426492f, -0.25649741f, 0.90816015f, 0.42961460f,
    -0.97069371f, -0.18271665f, -0.22580189f, -0.51192343f, -0.30770224f, 0.43243173f, 0.41941991f, 0.00856015f,
    -1.28847146f, -0.92455107f, 1.37478232f, -0.36294904f, -0.91455752f, -0.27989334f, 0.30424896f, 0.29509133f,
    0.50549787f, -1.77527082f, 0.27345589f, 0.94368893f, 0.25918621f, -0.44067225f, 0.42625266f, 0.89737260f,
    1.17882359f, -0.83021104f, 1.05348253f, 0.19015025f, 1.71262264f, 0.54849869f, -0.65001029f, 1.16038966f,
    -0.12670071f, 0.39392105f, 0.74715823f, 0.15640306f, -0.14791152f, 0.22795682f, 1.00943375f, -0.36597997f,
    1.46414971f, -0.48029310f, -0.11487828f, -0.88630319f, 0.23882647f, -0.45961905f, 0.08858257f, -0.03613306f,
    1.30280125f, 0.68484890f, -0.05288902f, 0.47369686f, -0.52297407f, -0.74945515f, -2.22044492f, -0.40365943f,
    -0.80071068f, 0.05318787f, 0.57841814f, 0.06750426f, -0.00939061f, -1.09899521f, 1.23696601f, -1.44203591f,
    -1.16897678f, 0.10143214f, 2.78368187f, -1.50691509f, -0.01488634f, -1.32656705f, 0.34806886f, 1.80623662f,
    -1.50357127f, -0.73584622f, 0.33640757f, 1.09873736f, -0.04393271f, 0.54497963f, -2.61892867f, -0.17302966f,
    -0.59905314f, -0.46174917f, 0.32734829f, -0.13428257f, 0.19461502f, -2.06154561f, 0.12729280f, -1.83768034f,
    0.90424585f, 1.73380256f, 0.86786026f, -0.66498774f, -0.84013921f, -0.02193889f, 0.99728501f, 0.16612785f,
    -0.38779423f, 0.41879004f, 1.11281073f, 0.21657684f, 1.06363750f, -0.43455493f, -0.87034374f, 1.39633703f,
    0.32165396f, 1.62635148f, 1.92663252f, 0.99077505f, 2.84213758f, 2.70011997f, 0.56509644f, -2.58388138f,
    0.21733302f, -0.36594838f, -0.40698165f, 2.26032639f, 0.92315048f, 0.84117049f, 3.10689330f, 2.33511877f,
    1.94908810f, 0.96674365f, -4.84652948f, -1.82600224f, -0.71441710f, -1.99919999f, -1.11077404f, 2.28569341f,
    -0.59657550f, -0.55285490f, 0.15789905f, -1.16116810f, 0.71726489f, 2.03469777f, 0.44746819f, -0.68632007f,
    3.19462204f, 0.81405520f, -1.44554484f, -4.93490839f, -1.80825865f, -1.79340219f, 3.39693403f, -1.75138652f,
    0.88300949f, 2.00698471f, 2.00040364f, -1.09357429f, -0.06843083f, 0.03668426f, -0.54983646f, 0.28642425f,
    0.03943285f, 1.83546841f, 2.10075903f, 2.80783534f, -1.49752223f, 0.44469211f, 0.33379415f, 0.35065034f,
    -0.35653952f, -2.11764431f, 0.88416630f, 2.18964219f, -1.43473589f, -0.84429955f, -1.08916795f, 3.68825507f,
    0.16269395f, -1.62286234f, 0.28799319f, -0.58624244f, 0.52274489f, 1.32236576f, 1.48523176f, 0.61145210f,
    -1.58272815f, -2.09861779f, 1.53628659f, -0.61220592f, 1.97102356f, -0.28301105f, -0.81211978f, 0.95174628f,
    0.03041602f, -0.26860073f, 1.21401250f, -0.09124651f, -1.84454119f, -0.41462481f, 1.21233130f, -1.46137905f,
    0.50460660f, 0.89358377f, -0.85982549f, -0.94945061f, -0.20947836f, 1.71594453f, -2.32091260f, 2.21692681f,
    1.06222248f, -1.37643445f, 1.19292486f, -0.44307810f, 1.59895778f, -0.34799543f, -0.40470761f, -0.36359924f,
    0.58748507f, 0.20396663f, 1.37950766f, -0.99056828f, 0.15862556f, 0.75858521f, 1.09478676f, 0.73595679f,
    -1.60105968f, -1.60517895f, 0.34984362f, 1.16477799f, 1.40749359f, 1.61189651f, -2.26197481f, 0.98393679f,
    1.13947284f, 1.49998844f, -0.97528183f, 0.76304686f, -2.16280746f, 1.12546897f, 0.45446485f, 1.03474581f,
    -1.15900469f, -1.56351602f, -1.42336035f, 1.13376915f, 3.96514058f, -0.73057246f, 1.04251575f, 0.76361656f,
    2.83470178f, -0.31485060f, -2.03597331f, -2.16983247f, -2.46059918f, 3.52602243f, 0.65250617f, -0.69172508f,
    0.95297283f, -2.59805012f, 0.21755145f, 1.92028248f, -0.43160754f, -0.97666156f, 1.91364014f, -1.83626139f,
    0.27503297f, 3.27351189f, -1.83151460f, -0.18711846f, 0.17316745f, 1.08883798f, -1.95141017f, 0.97522116f,
    -0.71232069f, 1.85029221f, -0.31821564f, 0.65845209f, -1.03869498f, 1.76609981f, 0.23717213f, 0.22860840f,
    -0.82232505f, 0.72261542f, -1.20110238f, -0.38163754f, -0.68564618f, 0.59474516f, 0.55525911f, 1.34443116f,
    1.14519918f, -0.57138306f, -0.47325808f, -0.16113190f, 0.97744119f, 0.68925190f, 0.02963501f, -0.63557959f,
    0.13560861f, -0.63617748f, -0.00594971f, 0.39385253f, 0.39160571f, -0.54422390f, 0.57951295f, -0.19490981f,
    1.11185718f, 1.12599564f, -0.42883474f, 1.80631685f, 1.35336471f, 0.09906683f, -0.56811267f, 0.37356034f,
    -1.29328680f, -1.02641404f, -0.24470641f, 0.13881446f, 0.28914616f, 0.48603678f, -0.55976909f, 1.62749302f,
    -1.23148894f, -0.29615772f, 2.10216475f, 0.31148183f, 0.02537042f, 0.26827750f, -0.84722888f, -2.00520635f,
    -1.59357285f, 2.45897174f, -0.91219032f, 2.16141534f, 1.52362537f, -1.07454228f, 1.80434620f, -2.11178446f,
    2.66937542f, 1.37189269f, -1.18695760f, -0.59132785f, 3.31073022f, 1.02310121f, 0.86197269f, 1.94051898f,
    0.11265510f, 0.91190684f, 1.54928362f, 0.34157795f, 1.74608326f, -1.44966853f, 0.72576320f, 0.61651087f,
    1.03470039f, 2.14846706f, -2.61768174f, -0.06680069f, -1.88698959f, -0.09684557f, -1.86489713f, -2.87395763f,
    -0.59674758f, 0.48561260f, 2.13761902f, 2.78923273f, 0.34974885f, 0.97657567f, 0.43284720f, 0.80772418f,
    2.28231406f, -0.20939472f, 0.22361532f, -2.23330402f, -0.41203678f, 0.16174702f, 0.15945661f, 1.67898715f,
    -0.37190247f, -0.24787921f, 0.69017977f, -0.77167642f, 1.51755619f, -0.07758072f, -0.54665077f, 0.30632219f,
    -1.36091483f, -0.37976268f, -0.75139368f, -0.41831571f, -0.97336680f, 0.92334414f, -0.72367078f, -0.62366551f,
    -1.61522329f, 1.99435890f, 0.37024555f, -0.15116662f, 0.49907005f, -0.49904752f, -1.38158727f, 0.04955757f,
    0.36479485f, -0.57462323f, 0.04554950f, 0.05025145f, -0.14771269f, -0.42264283f, 0.46510625f, 1.70298088f,
    1.89949131f, 1.06980002f, -0.37101185f, 1.83152878f, 0.95473760f, -1.26871836f, 0.01569813f, -0.67047524f,
    -0.37054926f, 1.72498786f, 0.89503562f, -0.63236612f, -0.65406603f, 1.43721175f, 1.10449207f, -1.92864561f,
    -1.60643756f, -0.42903167f, 0.38535497f, -0.47243008f, -0.00736603f, -0.26096821f, 0.94898736f, 1.92376637f,
    -1.25517273f, 0.70758027f, 0.04154011f, -0.30885229f, -0.19114432f, -1.84642243f, -0.17256831f, -1.23539412f,
    1.13078487f, 3.16386032f, -0.14433400f, -1.12149048f, -0.79418343f, -0.08387036f, -0.16071713f, 0.46271446f,
    1.76662612f, -1.70893359f, -0.55165106f, 0.64660031f, -0.03479477f, -1.12854826f, -1.46057558f, 0.68726641f,
    1.29358470f, -2.32073379f, -1.43031454f, 0.86619514f, -0.23207919f, 0.95572323f, -1.02705717f, 0.11876496f,
    1.31747413f, -0.48308283f, 0.90432566f, 1.32818258f, 0.36634269f, -0.38401529f, -0.70664138f, -0.02961580f,
    -0.44776040f, 0.06387919f, 0.56013602f, 0.83790809f, -2.51476312f, 1.54695439f, -0.68329418f, 0.01146507f,
    -3.06384492f, 1.07149780f, -0.76939750f, -0.24335676f, 0.34690574f, 2.14498019f, -0.22134125f, 2.34577417f,
    -1.72029626f, -0.33032921f, 1.75504887f, -2.25394797f, -0.49408546f, -4.83899927f, -0.58251214f, -1.25899434f,
    0.25407737f, -0.14951743f, 0.71762007f, -0.62557346f, 0.30527577f, 0.93593204f, 0.29890171f, 1.10568357f,
    0.27481800f, -0.43675795f, 0.45147708f, -0.38459477f, -0.30885836f, -1.68850148f, -1.24200797f, -2.00941777f,
    -1.58717012f, 2.65721488f, 2.87036324f, -1.18476987f, 0.84893709f, -0.89755970f, 1.53386784f, -0.24032293f,
    1.40550804f, -0.75062507f, 0.15219723f, -1.55546701f, 1.08377004f, 0.66006678f, -0.31055892f, 0.03618680f,
    1.13523376f, 0.01033294f, -1.45414400f, -0.26957652f, -0.21833250f, -0.15940566f, -1.43626201f, 0.32486862f,
    0.33926082f, -1.34091604f, -0.36240160f, 0.61476439f, 0.75417757f, 0.86385757f, 1.52025819f, -0.57572222f,
    0.61285180f, -0.09407261f, -0.71226209f, -0.86361396f, -0.65565670f, -0.55245668f, 0.08773447f, 0.07573351f,
    -0.44598037f, -1.37915123f, -0.15830870f, 0.00337991f, -1.55720961f, -0.92863947f, -1.11962414f, -0.00822455f,
    -0.06775676f, 0.62844771f, 0.06827182f, -0.45034710f, -2.31733012f, 0.11574578f, 2.02693939f, 0.23047017f,
    -0.04010597f, 0.50263983f, 1.64040864f, 0.36594436f, 0.22246170f, -3.64204502f, -1.51109684f, -2.02380586f,
    -2.05807996f, -1.94913435f, -0.50557482f, -0.97721171f, 0.58531600f, -0.55182427f, 1.70141637f, -1.17624354f,
    -0.29996508f, -0.53372771f, 0.33061984f, 1.13084412f, -3.08802485f, -0.12252259f, 0.84235382f, 3.27154064f,
    -1.02315557f, 0.61233234f, -0.70444816f, -0.15799087f, 0.25698298f, 1.85236073f, 1.33485067f, 0.84908986f,
    -1.85994816f, -1.63522577f, -1.85981774f, -3.26186538f, 1.11787415f, -1.58354354f, -0.41479433f, 2.29591393f,
    -2.13752604f, 0.10026357f, -0.89703876f, 0.08910511f, -0.26278043f, -0.04651999f, 1.87736559f, -0.20424384f,
    0.24318767f, -0.35658997f, -0.45778862f, -2.09075642f, 0.35499361f, 0.17471936f, -0.30641302f, 0.79695642f,
    0.07867662f, -1.04876029f, -1.38000739f, 1.83475351f, -0.26941550f, 0.79501790f, 0.31732258f, 0.74449438f,
    0.21062881f, -0.11586009f, -0.01597601f, 2.62746906f, -1.90092456f, -1.28856587f, 0.92387640f, 0.85051668f,
    0.21233590f, 1.85655594f, 2.19711518f, 0.78734428f, 0.32866699f, 0.11880692f, -1.95099413f, -1.14722216f,
    -0.63611889f, -0.86682218f, 1.89913261f, -0.33635977f, 0.12830511f, 1.21533322f, 1.18836331f, -1.35178065f,
    -1.88609529f, -0.38374385f, 2.22990942f, 2.95314622f, 0.04019392f, -0.05513622f, -0.19219498f, 2.13810849f,
    -0.27211952f, -0.62553674f, -0.29366457f, 0.56398320f, -1.07540250f, -1.99418294f, 1.01044989f, -0.13884114f,
    0.11223274f, 0.99265283f, -0.34286931f, -2.10051656f, -1.07580054f, -1.49275935f, 0.68270487f, -0.05385029f,
    0.71187109f, 1.12465525f, 0.33903074f, -2.45688486f, -0.44510534f, -0.09217622f, -0.14237705f, 2.52521396f,
    -0.20598380f, -0.41027987f, 0.46662736f, -1.08603179f, 0.13105305f, 1.63537204f, -2.16663361f, 0.44605118f,
    -0.11700545f, -0.30979100f, -0.28951466f, -1.04902637f, 1.16789687f, -0.44424376f, -1.24187636f, -0.85158908f,
    -0.73651713f, -0.08100171f, -0.42609316f, 0.13034669f, -0.56866843f, -0.32971236f, 1.00610077f, -1.11295021f,
    0.21950151f, 0.78039485f, 0.30565557f, -1.16821373f, 0.52110839f, -0.32542440f, 1.87780094f, -1.92902732f,
    1.94413400f, -1.35621405f, -1.00518322f, -0.25677931f, -1.26521122f, 0.98142260f, -0.07771283f, -0.04320624f,
    -0.37696517f, -1.03419495f, -0.09569546f, -0.34616512f, -0.54721028f, -0.52911264f, -1.49343312f, -1.31467867f,
    -0.47441447f, -0.71937639f, -0.06244691f, -1.84144473f, 0.36805540f, 0.10855141f, -0.63814950f, -0.10947976f,
    -1.50267291f, 1.79584694f, -0.84603941f, 0.34849656f, -0.05487232f, 0.88371676f, 0.99655694f, -0.85927999f,
    0.39595971f, 0.57657123f, -1.31912732f, -0.61828589f, -0.75546861f, -0.78009808f, -0.83708072f, -1.67565167f,
    -0.78826523f, 0.67595232f, -0.05327126f, 1.13479137f, 0.57939947f, -0.80642575f, -1.26103103f, 0.90353423f,
    0.45512313f, 1.68213964f, -0.70220423f, 0.79840988f, 0.35930130f, -1.85340905f, -1.43836308f, -0.78945667f,
    -0.29532072f, -1.18910289f, 0.98303771f, -1.14064813f, -0.22417279f, 0.89411342f, 0.30626839f, -1.55157113f,
    1.08152294f, -2.13087940f, 0.23561601f, 0.34400210f, -1.17077947f, -0.49715325f, -0.36177510f, -0.15367605f,
    -0.20858635f, -0.68559873f, -1.54248738f, 1.63139880f, 0.96876931f, 1.84228754f, 0.99285340f, 0.52077383f,
    -1.35287595f, -0.58204168f, -1.94028389f, -0.39897192f, 1.62938166f, 0.31373742f, 0.56660044f, 0.09741749f,
    -2.45996785f, 0.03064958f, -0.16361691f, -0.71359080f, 0.53704095f, 1.35394347f, -0.31935379f, 0.43224961f,
    0.72524858f, -0.55224389f, 1.90663016f, -2.48388720f, 0.51682764f, 0.49265170f, -1.07780671f, -0.38192469f,
    0.27750608f, -0.17293657f, -0.11865707f, 0.85888660f, 1.68882632f, -0.17850567f, -1.41400158f, 0.56001037f,
    0.32803154f, -3.17886472f, -1.12540412f, -2.01061678f, 2.45281267f, -1.03537130f, 0.22857933f, 0.53549296f,
    -0.18121894f, -1.22597766f, 0.66659361f, 0.72388774f, -0.05791022f, 1.43859625f, -0.39668626f, 1.39944255f,
    -0.74238098f, -1.16280746f, 0.75536966f, 0.60739124f, -0.70846802f, -2.13113642f, 0.21337318f, -0.28799042f,
    -1.15536988f, -0.51854509f, 1.58615792f, -2.02341723f, -0.14466205f, -0.33055645f, 0.03147839f, -0.65824890f,
    0.80440408f, -0.18763898f, 3.42609239f, -0.29243159f, 1.10654044f, -1.50030410f, -2.08278751f, 0.96685845f,
    0.29346928f, -0.52868170f, -0.02195110f, -0.30513099f, 0.48822156f, 0.97101974f, 1.67244887f, -0.45828062f,
    0.14244977f, 0.87379277f, 1.78312612f, -0.94351971f, -0.20946717f, 0.29561239f, -0.01079394f, 3.01826334f,
    -0.15400435f, -0.28375173f, -1.09114826f, -0.00453755f, 0.31055951f, -0.66372842f, -0.84091818f, 2.19086599f,
    4.08830833f, 0.76073998f, -0.65176272f, 0.34906089f, -0.63562280f, 0.05959839f, -1.98559129f, -0.70542306f,
    -0.34654233f, 0.73487765f, 0.90549517f, 0.09022398f, 0.20015119f, -1.30865884f, 0.73066336f, -1.54091763f,
    -0.64455634f, -1.07188010f, 0.33628654f, 0.14909622f, 0.47863755f, -1.36733186f, 0.67575371f, -0.19981630f,
    0.32768181f, -0.13024816f, -0.38379502f, -1.01092517f, 0.72071582f, -0.62490505f, 0.14637470f, 1.97799158f,
    -0.08838706f, 0.06124786f, -0.77711999f, -0.05657961f, -1.23504364f, -0.71035665f, 1.14269888f, 0.88714391f,
    -0.24271789f, -1.79926896f, 0.51006186f, -0.73504847f, 0.79252708f, -1.80862606f, -0.34978950f, 0.51528347f,
    0.65226877f, 0.61586654f, -2.53127909f, 0.03192459f, -0.51395214f, -0.78236836f, -0.27592227f, -0.00417603f,
    0.70665860f, 0.29281551f, 0.41265041f, -0.45287794f, 0.43173307f, 1.10658753f, -0.27691892f, -0.12966280f,
    -0.37335622f, -1.09108531f, 0.50117254f, -0.43244296f, 0.24068816f, -0.77818447f, 0.87618524f, 0.38828173f,
    -1.70769370f, 0.46580377f, 0.72452104f, 0.10143872f, 0.33930239f, -0.06960924f, -1.32604158f, -0.24972782f,
    0.28693023f, 0.56988120f, -0.71585548f, 0.48741260f, -1.62847960f, -0.59782177f, 0.45593235f, -0.38625202f,
    0.83233452f, 0.04051889f, 0.43789384f, -1.17346692f, 0.44529703f, 0.12975107f, 0.04832716f, -1.85355532f,
    -0.03631155f, -0.29700845f, -0.10179959f, 0.18757677f, -1.30560756f, 0.09389187f, 0.21202582f, -0.14546508f,
    -0.04331195f, 0.83422071f, -0.39985979f, 0.85868508f, -0.50977039f, -0.65607381f, -0.23163609f, 0.09945266f,
    -0.12489157f, 1.37645614f, 0.06241010f, 0.54426807f, 0.64657760f, -0.13896640f, -0.16867921f, -0.68113500f,
    -0.47400603f, 0.11203140f, 1.34577680f, -0.18403286f, 0.07270332f, 0.41949371f, -1.10997403f, 0.15668871f,
    1.28678167f, 0.01114735f, 0.81094348f, 0.02285304f, -0.45270050f, -0.74736655f, -0.47926876f, 0.36247167f,
    -1.55640686f, -1.26977909f, 0.43691096f, -0.31403992f, 1.09250391f, -1.09066963f, 0.21276639f, 1.64595664f,
    0.21093524f, -1.54205084f, -0.37878549f, -0.00088999f, -0.06180263f, 0.54234082f, -1.02003455f, -0.86957484f,
    -0.55340487f, 0.75883591f, -1.09285283f, 0.53514057f, -0.45636100f, 1.52431560f, -0.39128974f, -0.77674067f,
    -0.19632928f, 0.39378849f, -0.25889108f, -0.15577088f, -0.66610664f, -0.15901533f, 0.14765520f, 1.03955412f,
    -0.11332591f, -0.32689583f, 1.02300119f, 1.33212101f, -0.98402309f, 0.00093481f, 0.39789951f, -0.22863927f,
    -1.03901303f, 0.09601226f, -0.06848203f, -0.08237264f, 0.66248775f, -0.08832538f, 0.23547928f, 0.19526005f,
    7.03892088f, 0.25820035f, 0.01130559f, 0.24402913f, -0.42446235f, 0.05436978f, -0.26714814f, -0.47031620f,
    0.40448374f, -0.25400889f, 0.90796226f, -0.49016812f, 0.48403189f, 0.10478803f, -0.20659351f, -0.15922329f,
    0.41622186f, 1.34527552f, 0.00813921f, -0.15634544f, -0.07640851f, -0.28021860f, -0.52044946f, 2.16612077f,
    -0.28595406f, 0.07760577f, -0.40327951f, 1.49570358f, -0.38309574f, 7.86046171f, 0.33521235f, 0.41330177f,
    0.50704539f, -0.47147566f, -0.45950255f, -0.34644610f, 0.27141577f, 0.56980062f, -0.36170253f, 0.23972568f,
    0.39999962f, 0.11416228f, 0.02882749f, -0.00554342f, -0.79636484f, 0.43339965f, -0.41132528f, -0.88757706f,
    -0.54804331f, -0.33579347f, 0.33247051f, -0.10294246f, -0.19412805f, -0.34988514f, -0.02684625f, -0.51076376f,
    -0.95267308f, 0.78149098f, 0.39278534f, 0.08224356f, 0.67251807f, -1.16394961f, 0.69718766f, 1.38230228f,
    -0.31422320f, -0.43362769f, -0.37704843f, 0.38050425f, 0.04502912f, 0.11410422f, 0.65568316f, 0.73287070f,
    -1.06051540f, 0.92403233f, 0.14912996f, 0.78353065f, -0.02959857f, 0.03160353f, -0.63694060f, -2.02170253f,
    0.97641081f, -0.15408742f, 0.66994768f, -0.08862764f, -0.36385691f, -0.27713287f, 0.58862388f, -0.02970940f,
    -0.25994593f, -0.74469197f, -0.04410661f, 0.21658078f, -1.50905836f, 1.47364843f, -0.96328908f, 1.03954399f,
    -0.92926711f, 0.53222960f, 2.19637704f, -0.39337239f, -1.35475922f, -1.04476750f, -0.72962397f, 1.93529892f,
    0.01921604f, 0.81408864f, -0.33020222f, -1.61847770f, 1.81606281f, 1.01435757f, -0.87010074f, 1.37789607f,
    0.90257007f, -0.18557313f, 0.70287502f, -0.47778323f, -1.83970976f, -0.20967005f, -0.62891376f, 1.00197947f,
    -1.06188118f, 0.85330975f, 0.03751804f, -0.07359549f, 0.54085124f, 0.27940813f, -0.75764906f, -0.33773863f,
    0.58360821f, -1.42528999f, 0.81326771f, -0.43602943f, -0.61824709f, -1.94092917f, -0.91298932f, -0.65224707f,
    1.19093955f, 0.48048002f, -0.53197372f, 1.07110965f, -0.95766985f, 0.79207814f, -0.31719258f, 0.68012303f,
    -2.36764479f, -0.27536881f, 0.16822536f, 1.01414514f, -0.86115474f, -0.46220434f, 1.60416675f, -2.13811398f,
    1.96409810f, -1.69257808f, -0.16556545f, -1.76300442f, 1.03103495f, -0.01302277f, -0.42330745f, 0.12375023f,
    -0.02899332f, 0.74618995f, -0.35098621f, -0.01232769f, -1.16555142f, 1.50123584f, -0.86914337f, 1.62382293f,
    -0.74323618f, 0.45187655f, -1.16916203f, 1.25651097f, -3.09867430f, -0.04890722f, 0.10002267f, -1.09809017f,
    1.09497154f, 0.43744922f, 0.58695054f, -0.18345918f, 0.22542392f, 0.14834361f, 0.72697985f, 2.23296595f,
    0.31943512f, 0.60222089f, -0.50234777f, -0.15315454f, 3.75936580f, -0.63534546f, -0.34408709f, -0.21446776f,
    -0.47495133f, 0.57367456f, 0.87161839f, 1.54605496f, 0.02145369f, 0.22594175f, 0.71760583f, 0.11036315f,
    2.25736213f, -0.53554726f, -0.22480562f, -1.17988050f, -0.24194548f, 0.39790577f, 1.26921904f, 0.75056124f,
    0.35343954f, 0.08200234f, -0.61348909f, -0.98927712f, 1.50594139f, -1.96250975f, 0.07400971f, -0.08359379f,
    0.40909344f, -0.10347401f, 0.20819882f, 1.80464303f, 1.09387505f, 0.29384094f, -0.05708998f, 0.83198917f,
    -0.61680108f, 1.01062346f, -1.16697335f, -0.37470797f, -0.55534196f, 3.94877267f, -0.44181430f, -2.19117618f,
    -0.34474376f, 1.18163610f, -0.27472970f, -0.29522735f, -0.19728665f, 0.49793053f, 0.99089110f, 0.50043446f,
    0.33145157f, 0.04054777f, -0.00504346f, -1.74075794f, -0.21190572f, -0.61667407f, 0.71224201f, -0.49755904f,
    -0.19116248f, 1.04962063f, -0.51418489f, -1.32551229f, 0.96236062f, -0.93202198f, 0.56481469f, -0.47473568f,
    -2.14469075f, 0.30664018f, -1.06285858f, -0.86183470f, 1.81342149f, -0.29948792f, 0.27029368f, 0.23249994f,
    -0.45004839f, 0.22105764f, 0.26684511f, -0.34582475f, -0.76669496f, -0.44631973f, 0.50383532f, 0.11895913f,
    0.33706039f, 1.51034808f, 0.17826825f, -1.04663038f, 0.34700629f, 1.33850563f, 0.04880585f, -0.37176639f,
    1.39363933f, -0.72945058f, 1.03479350f, 1.05598092f, -0.53933132f, 0.08641848f, 0.19320688f, -0.05558575f,
    0.25584269f, 0.91013891f, 0.83946645f, 0.27279657f, 0.46061450f, 0.10829715f, -0.17326483f, 0.78477156f,
    -0.17195305f, 0.34491828f, 0.69049871f, -0.11317409f, 1.59691012f, -0.42950138f, -0.72926855f, 0.45544693f,
    -0.40001798f, -0.87036586f, -0.61809242f, 1.35911405f, 0.51452756f, 0.49386698f, -0.31211337f, 1.12885725f,
    0.97345370f, 0.47405374f, 1.09906244f, -0.09746798f, 1.86094809f, 1.44112492f, -0.34775448f, 0.77988905f,
    -0.05890018f, -0.59796125f, -0.13730112f, -1.21000183f, -0.24336919f, -0.43664488f, 0.35109690f, -0.58104968f,
    -0.15548661f, -2.29580975f, 0.94704461f, 0.36747092f, -0.65128672f, -0.20603873f, -0.74768496f, -0.63551152f,
    -0.75471014f, 0.25616303f, 0.36357439f, 0.80009866f, 0.45466024f, -0.12274076f, -0.25612366f, 0.50037533f,
    0.32472908f, 0.47911102f, -1.19624376f, 1.30558872f, -1.76936030f, 0.24659677f, -1.93339896f, 0.77875966f,
    -1.41437483f, -0.12316632f, 0.46711972f, 0.27366179f, -0.93050832f, -1.85423124f, -0.31233776f, 0.14519347f,
    0.91835576f, -0.09883180f, 0.97479767f, 0.07610369f, 0.38583988f, -0.11425526f, -1.22030890f, -1.94712293f,
    0.37225580f, -0.16535430f, 1.77938628f, 0.61047721f, 1.61252534f, 0.76358759f, 0.61209834f, 1.05259359f,
    0.34686360f, -0.14760888f, 0.53489226f, 0.98296767f, 0.28151798f, 0.06976611f, -0.87072164f, -0.12159113f,
    0.42556193f, 0.11556482f, -0.80018014f, -0.90752989f, 0.27861881f, 0.20925578f, -0.81100959f, -0.05584316f,
    1.12437952f, -0.73367298f, -1.23519504f, -0.76741916f, -0.90281558f, 0.33474237f, -3.07103372f, -0.38112599f,
    -0.19490595f, 0.73269224f, 0.44468665f, -0.79469192f, 0.56932306f, 0.27328363f, -1.37323594f, 2.73761487f,
    -0.34420532f, 1.20278299f, 0.79142004f, -1.35372829f, 0.19048829f, 0.35616735f, -0.63308597f, -0.49156982f,
    0.50758547f, -0.56802756f, 1.13536382f, 1.33256447f, 1.02336323f, 0.49249592f, 0.40139171f, -0.64875728f,
    -1.15578532f, 0.85555488f, -1.32346094f, -1.10471165f, 0.33850706f, -1.43226230f, -0.41205293f, 0.37984660f,
    -0.14386073f, 0.84231383f, 1.01000977f, -0.71911889f, -0.67538214f, -0.80071759f, -1.44298267f, -0.24325180f,
    -0.08215754f, 0.47950804f, -0.43374112f, -1.33927238f, -1.55092847f, 1.73558199f, 0.61343771f, -0.18106425f,
    -1.50481355f, 0.60375923f, 0.80689400f, 0.23398341f, -0.26351318f, -0.31001806f, -0.11134179f, -0.07800682f,
    0.53055573f, 1.80199015f, -0.08667971f, -0.27815038f, 0.58181334f, -0.95706415f, 0.46826699f, 0.77024746f,
    -0.09850278f, 0.56965172f, -1.16547990f, 0.02119499f, -0.57454312f, 0.66010886f, 0.51701897f, 0.03322817f,
    1.76119053f, -0.59286082f, -0.55347443f, -0.12294991f, -0.85277361f, 0.84005815f, 0.27004844f, -0.74737287f,
    1.53557658f, 0.87806273f, 0.31446376f, 0.98915917f, -0.24144009f, 0.56982660f, -0.70484340f, -0.51350021f,
    -0.38158146f, -0.52372569f, 0.04966530f, -0.30629274f, -0.24693182f, -2.57173038f, -0.44634762f, -1.82415938f,
    -2.95875287f, -0.17679133f, 1.27799809f, 0.07011532f, -1.14216709f, 1.54774761f, 2.27443552f, 0.95021909f,
    0.45161065f, 0.00236007f, -0.26616806f, 0.41434315f, 0.12092134f, 0.91183805f, 0.60590470f, -0.06558793f,
    0.13412160f, -1.98527050f, -0.96504551f, 0.34148261f, -0.71728653f, -0.06163018f, 0.19204196f, 0.48633894f,
    0.47929412f, 0.11898340f, 1.20850861f, -2.20852399f, -0.85367572f, 0.87465113f, 0.78882492f, -3.48678827f,
    -1.11755168f, -2.04565644f, -1.04702449f, -1.10956347f, -1.27589452f, -0.30425802f, 0.77232218f, -0.23111130f,
    0.60860586f, -1.54499614f, -1.05556774f, -0.48977017f, 0.40477127f, 0.26213631f, 0.59283608f, -0.26515132f,
    -0.19537374f, -0.28742266f, -0.52254289f, 0.98507631f, 0.41000485f, -0.72354585f, -0.07946128f, -0.16919181f,
    0.24736303f, -0.19150724f, -1.04573739f, 0.67890054f, -1.91315913f, -0.61980313f, -0.18165213f, 1.50956941f,
    -1.51887643f, -0.00227410f, -0.52464050f, 0.88219881f, 0.75548583f, 0.51720446f, 1.03296435f, 0.44814894f,
    -0.93236953f, -0.45305464f, 0.23196255f, -1.25962102f, -0.42786163f, 1.18456924f, 1.04587221f, 0.45881853f,
    -0.09716117f, 1.05317020f, 1.05692613f, -1.79796553f, 2.27314305f, 0.46555793f, 0.64286196f, -0.77181464f,
    0.38981077f, 0.64927125f, 0.51212835f, -0.45926577f, 0.50786096f, -1.39813125f, 0.08831646f, -0.20624225f,
    -1.21016383f, -0.35015234f, 0.21709712f, 0.42555043f, -0.45491576f, -0.01862008f, -0.24005030f, 1.43887687f,
    -1.67611575f, 0.68726981f, -1.29452610f, 0.26827389f, 0.28085646f, -0.48405495f, -0.17866389f, -1.43793917f,
    -1.55174673f, -0.66196799f, 1.04102600f, -1.54614758f, -0.93367004f, -2.06049991f, 0.39256001f, -0.38423708f,
    -1.61028981f, -1.73220742f, 0.25943694f, -0.70923513f, 0.21968816f, 0.76091379f, 1.40071356f, -0.40307355f,
    -0.73441470f, 0.07522830f, -1.32411873f, -0.24646276f, 0.09976826f, 0.96794254f, -0.91201544f, 0.58588850f,
    1.82193708f, 1.00879002f, -0.12096535f, -1.17180812f, -0.26920339f, 1.71128976f, -0.23145314f, 0.49381876f,
    -0.62531704f, 0.19505575f, -0.43427476f, 0.34379199f, -0.54175353f, 0.64259976f, 0.25508785f, -0.39522648f,
    0.09707797f, 0.76947385f, 1.04398096f, 0.25938085f, -0.37395626f, 0.56244314f, -1.16167009f, -1.09538102f,
    -0.02875650f, 0.12161571f, 0.01782364f, -1.18633151f, 0.43902904f, 0.29657742f, -0.38110471f, 0.70556957f,
    0.28711769f, 0.25715491f, 0.40498194f, 1.00695205f, -0.16013505f, 0.35819143f, -0.25189808f, 1.25678957f,
    -1.53862357f, 0.41658834f, 1.57748973f, 0.12775762f, 1.20382369f, -1.30836034f, -0.02767319f, -2.95765972f,
    0.02263024f, 0.78714007f, 1.16256833f, 0.16146475f, 0.42537799f, -1.43796945f, 0.14318849f, 0.73657632f,
    0.25787216f, 0.60367239f, 1.36566699f, 0.84242308f, 1.90714860f, -0.48012221f, 1.30158925f, -1.58405113f,
    -0.02074214f, -0.60992026f, 0.61567575f, -0.05765450f, 3.12963796f, -0.92091614f, 1.23497641f, -0.86623096f,
    0.43786010f, 0.24792932f, -0.26421642f, 0.95209521f, -1.54891598f, -0.28647456f, -0.43423960f, 0.01887655f,
    -1.52036989f, 0.56118643f, -0.86051601f, 1.81551278f, 1.76086104f, 1.59642160f, 1.03186679f, -0.83780682f,
    -0.85778064f, 0.24278860f, -1.39598465f, -0.95485950f, -1.40594983f, -0.23203529f, 1.84916615f, 0.14279418f,
    -0.49883008f, 1.66312134f, -0.80351305f, -0.27662572f, 1.24500096f, -0.53102392f, -0.09523004f, -0.03208843f,
    -0.78173161f, -0.20032144f, 0.36812919f, -0.59412307f, 1.47412658f, -0.04688890f, 0.19743930f, 0.58598608f,
    0.41034070f, 0.34064123f, -0.66624355f, -0.40440705f, 0.43920752f, -0.75668722f, -1.03970230f, -0.58692265f,
    -1.77831960f, -1.27392793f, -0.47083041f, 1.09227288f, 0.09373663f, -1.01059318f, -0.72735697f, -0.80513412f,
    -0.48731026f, 0.13119906f, -0.56894988f, 0.75503099f, -0.95032656f, -0.12520625f, -0.47074020f, 1.80166280f,
    -1.47424304f, 1.08862889f, 0.74233145f, -0.27058816f, -0.22835135f, 0.51824099f, 1.57936931f, -0.52241421f,
    -0.55357015f, 1.03691506f, -0.04063158f, -0.98163354f, -1.09239244f, 0.66752458f, -0.23133369f, -0.01729692f,
    -1.56144655f, -1.81802952f, 0.42550206f, 1.38448894f, -1.06819439f, 0.23862725f, -0.41046354f, -0.42292958f,
    -0.10428072f, 0.16662751f, 1.43649948f, -0.34889102f, -0.33709204f, -0.65895295f, -0.09118256f, 0.74302244f,
    -2.38674760f, -0.00886122f, 0.23837750f, -0.38816211f, -0.54078424f, -0.54806459f, -0.30973089f, -0.77191132f,
    -0.38900274f, -1.01439404f, 0.71052760f, 0.43113279f, -1.50670767f, -1.55337703f, 0.25393263f, -0.04518437f,
    -0.90443748f, -1.20153439f, 0.22128166f, -0.58690393f, -0.65406537f, 0.84551489f, 0.17859922f, -1.36025381f,
    -1.15998638f, 0.97265118f, -0.00778051f, -0.66591054f, -1.11397839f, -2.40986300f, 0.81885481f, -0.25375006f,
    -1.29837072f, 0.17653279f, -0.50472915f, 0.30338866f, -1.67011178f, -1.13225412f, 0.12218534f, -1.19848490f,
    0.22883923f, -0.36659047f, -0.24413230f, -0.27720785f, -1.16450012f, 0.54087293f, 1.83906603f, -0.43814573f,
    0.98747295f, -0.53788143f, 2.26650453f, 0.62312150f, -0.95129395f, -0.17903009f, -1.13939333f, -0.75012875f,
    0.24858218f, -0.47041357f, -0.20797513f, 0.87986130f, -1.32890034f, 0.64578879f, 1.28394675f, 0.84708488f,
    0.78075904f, 0.09591889f, 0.32751015f, 1.53066432f, -1.05179667f, -0.14528234f, 0.57842630f, -0.55053622f,
    0.02121014f, 0.76107979f, 1.41265011f, -0.24789482f, -1.75082374f, 0.16936007f, 0.05930855f, 3.15584016f,
    0.80471659f, 0.38256180f, 0.59237564f, -0.55363518f, -0.68708378f, 0.44670141f, 0.86868566f, 0.28811598f,
    0.58440804f, -0.45300201f, -0.33131465f, 0.68448311f, 0.48218772f, -0.53564596f, -0.13853025f, 0.23747429f,
    -1.15878224f, -0.12683143f, -1.23654902f, -0.09481130f, -0.05871797f, 0.11341927f, -0.82936949f, 0.12194391f,
    1.52535796f, -0.56721425f, -0.00131515f, 1.28912306f, 0.04328404f, -0.42002654f, 0.49076012f, -0.56650215f,
    -0.41225943f, 0.06709523f, -1.04496956f, 0.39543217f, -1.12834013f, 0.25578192f, -0.85182661f, 1.52682817f,
    -0.20018366f, 0.25799203f, 0.65738255f, 1.45699692f, 1.35562217f, 0.59240997f, -0.27006584f, 0.25481597f,
    0.75373483f, 0.33950856f, -0.01414293f, -0.83043087f, -0.30548728f, 1.21675241f, 0.07914014f, 0.68416971f,
    0.20332658f, -0.33281782f, -1.08780110f, 1.69361866f, -2.11709285f, -0.98857534f, -0.03144203f, 1.56260741f,
    -0.89313447f, 1.39811957f, -0.89477444f, -0.19838515f, 1.74506712f, -1.26865792f, 0.01009730f, 0.07654654f,
    0.63834184f, -0.17196243f, -0.62169045f, -1.02123475f, -1.28457689f, 0.32702753f, -0.67038107f, -0.64744103f,
    -1.41181958f, 1.81467879f, 0.42048720f, 0.98144835f, -0.80846512f, -0.51081163f, 0.66665286f, 0.12670553f,
    0.57784224f, -0.81483018f, 0.35148910f, -0.44646868f, -0.36975381f, 1.87209439f, 0.04680045f, 1.04441655f,
    0.77969366f, 1.14893246f, 0.13206971f, -1.47112155f, 0.54032880f, -0.11356503f, -0.09182315f, -1.48631680f,
    0.52464622f, 0.12793972f, -0.61370164f, -0.55118513f, 0.82524794f, -0.07544063f, 0.66719604f, 0.01294110f,
    1.43765056f, 1.70515192f, -0.52385724f, 1.22502244f, -0.31344584f, -1.18540680f, 0.95211005f, 0.15754348f,
    1.04536176f, 0.91654211f, -0.67270190f, -0.05364864f, 1.53316104f, -0.00966535f, -0.77958024f, -0.22238380f,
    -0.40077192f, 0.08813655f, 0.30740184f, -0.58499652f, -1.46202290f, 0.30523130f, 0.37224519f, -1.56224191f,
    1.34340918f, 1.27218640f, -0.80469459f, 0.35595894f, 0.29854178f, 1.02481806f, -1.27895594f, 0.76635122f,
    -2.04718971f, 0.83903986f, 0.52402568f, 1.82263541f, 0.92692345f, -0.94049335f, -0.03963822f, -0.11322223f,
    1.42467177f, 1.04398334f, -0.52902770f, 0.63886052f, 0.73733151f, 0.30446500f, -1.00744438f, 0.40069765f,
    -0.33731946f, 0.73109168f, 0.76682878f, 0.08069183f, 1.09432530f, 0.71984982f, -0.11133923f, -0.94285738f,
    0.50975299f, -0.23345445f, 1.83278108f, 0.83721948f, -2.05691648f, 0.36392179f, -0.30533630f, -0.92813081f,
    0.18487811f, -0.74773693f, 1.02696586f, -0.07082689f, -1.60527217f, 0.58498478f, 1.23071373f, 0.57334048f,
    1.14154482f, 1.18170118f, 0.51479900f, 0.46700510f, 0.65606529f, -0.74987847f, 0.26503217f, -1.55079246f,
    -0.31821650f, -0.84128016f, 0.09043130f, -0.07044096f, -0.23261704f, 0.14784552f, 0.36820465f, 2.24104667f,
    1.36831069f, -0.16855296f, -0.97494221f, -0.81264162f, 0.60583818f, 0.54452193f, 0.34823662f, 0.48335114f,
    -0.38855469f, 0.30284894f, -0.22625610f, -0.06937271f, 1.04584920f, -0.45607394f, -0.58680701f, -0.47799560f,
    0.62800521f, 0.84712839f, 0.05693204f, 0.03199873f, 2.76627064f, 0.83553326f, 0.53328437f, -1.24827671f,
    0.63398397f, 1.05404294f, 1.03809142f, 1.75733912f, 0.11885068f, 0.24460147f, -0.05388169f, 2.93417931f,
    -0.07979907f, 1.34192777f, 0.08412629f, 0.50041121f, 2.81425858f, 0.49772868f, 0.18662742f, -0.03186591f,
    0.65626884f, -0.66897130f, -1.08226621f, 0.97917509f, 0.46060187f, -0.44308189f, -0.16257839f, -0.05933501f,
    -1.48100591f, -0.69682717f, 0.40931305f, -1.13495708f, 0.31484422f, -1.09931386f, -0.40627158f, 0.40060371f,
    0.70640165f, -0.46081367f, 0.48049933f, -0.18462434f, 0.00333620f, 0.18502463f, -0.04046269f, -1.16412437f,
    0.47311884f, 0.03405817f, -0.73969120f, -1.63491404f, 0.03947710f, 1.32684088f, -1.24078274f, -0.57873076f,
    -0.12076833f, 0.78330100f, 0.21200679f, 0.47810540f, 0.13449553f, -1.03362179f, 0.52794701f, 0.13789436f,
    0.99465346f, 0.61747015f, -0.52092701f, -1.93999696f, -1.00944197f, 0.16112681f, 0.32429484f, -0.85862869f,
    1.16430390f, -0.79005557f, 0.24384977f, 0.76965898f, 3.59502602f, -0.42265561f, 0.31392145f, -0.06903736f,
    0.16999938f, -2.26966333f, -0.81936872f, -1.71549428f, -0.52507728f, -0.25487971f, -0.33794439f, -0.73550999f,
    -0.87564087f, 0.15860184f, 0.64776933f, 0.84231699f, -1.50831342f, -0.16256127f, 1.18003142f, -0.21402103f,
    -0.95602524f, -0.14067660f, -0.81930727f, 0.11465826f, 0.27071059f, 0.04838242f, 1.53573823f, 0.51027715f,
    0.05195564f, -0.71690208f, 1.24649644f, -1.81987035f, -1.01986063f, -0.27477330f, 0.33113465f, 1.05161750f,
    -1.65273285f, -0.24562794f, 1.88301754f, 0.00940356f, 1.33088958f, 1.04332876f, -0.38824955f, -0.33057287f,
    -0.80140525f, 1.06701767f, -0.30557680f, -0.33067438f, 0.16570941f, -0.31070754f, -0.10577223f, -0.55206126f,
    -0.78796005f, -0.74269658f, -0.10548399f, 1.73958981f, 0.10646854f, -0.27402771f, 0.70270300f, -0.54100382f,
    0.31950343f, -0.24985169f, -0.92993003f, 0.06552704f, 1.77614641f, 0.28038827f, -0.55655730f, -1.22748685f,
    0.50329959f, -0.68351316f, 0.37267151f, -0.86341625f, -0.61169636f, -1.34330523f, 0.80970079f, 0.53037322f,
    -0.38434151f, -0.12675691f, 2.55235672f, 1.12198675f, 0.70055830f, -2.53523207f, -1.18670738f, -0.17534058f,
    -0.35316643f, 0.37100306f, -1.43949759f, -1.16116095f, 0.14430171f, -0.99399400f, -0.48033857f, 1.22193372f,
    -1.75434506f, 0.20625632f, -0.24854432f, 2.21067834f, 1.12518013f, -0.44351497f, -0.08216759f, -0.16364039f,
    -0.39675206f, 0.15425186f, 2.25855446f, -1.65983641f, -0.01465805f, 0.14061117f, -1.21081913f, 0.78110987f,
    0.95101756f, 0.88346869f, 0.63588983f, 2.09269285f, 1.28830457f, 0.48698804f, -1.65517604f, 1.52731693f,
    1.11407793f, -1.60374892f, 1.14224684f, -0.43796903f, -0.35185096f, 0.52479076f, 0.25012234f, -0.77076852f,
    -0.07927349f, 1.33424878f, -0.70673639f, 0.52044922f, -1.54847050f, -0.46410507f, 0.37704355f, -0.74700278f,
    -0.11734014f, 0.00588488f, -0.87328577f, -1.39879966f, -0.65607238f, -0.34340894f, 0.85226631f, -0.55843043f,
    0.58800793f, -0.47837746f, -0.07909076f, 0.09900900f, -0.38841340f, -0.17727605f, -0.38814712f, -0.01232302f,
    0.02494720f, 0.60547549f, -0.26535833f, -0.60026497f, -1.44000828f, 0.29107553f, -0.85265595f, -0.55592984f,
    -0.57774997f, 0.48949558f, 0.75264049f, -0.57786053f, 1.09006500f, 0.15942253f, -0.22162619f, -0.60863161f,
    0.51780695f, -0.13538645f, 0.17687456f, -0.63328570f, 0.51716757f, 0.17091131f, 0.45507705f, -0.60310268f,
    0.50757313f, 0.13499591f, 0.65105081f, -0.34519517f, 0.16860108f, -1.00743902f, 4.98558521f, -0.87376064f,
    -0.07590065f, -0.71208686f, 0.05529649f, -1.25330198f, 1.44037664f, -1.13192809f, -0.61298925f, -0.12064084f,
    -0.16258344f, 0.31953022f, -1.23459220f, 1.42279935f, -0.57308692f, 0.29557925f, 0.92590368f, -0.04975455f,
    -0.02846012f, 0.03650163f, 0.65298414f, 0.56196028f, -0.19832754f, 1.19927824f, -1.75580060f, -1.44472694f,
    0.22720577f, -0.21623652f, 0.08460740f, 4.90861702f, -0.90555918f, 0.15927580f, 1.33911288f, 1.06144285f,
    1.75533783f, -0.27262461f, -1.02340412f, 0.28448296f, 1.28266525f, -0.99353182f, 0.17086405f, 0.27925333f,
    -0.53963524f, -0.78710657f, 0.37572867f, -0.17385025f, 0.97059560f, -0.19604301f, -2.31337762f, 1.76558280f,
    -0.89450598f, 1.35434246f, -0.14529270f, -1.22204149f, -0.68728745f, 1.01966178f, -0.52907991f, 0.92541915f,
    1.09994721f, 1.18396831f, -0.70584828f, -2.42230749f, -1.04828691f, -0.58321357f, -0.83818847f, -1.95346296f,
    -0.57267064f, 0.11141361f, -0.39187703f, -0.49817753f, -0.11290587f, -0.57533073f, 0.51949650f, 1.40228212f,
    -0.29067841f, -0.62713504f, 0.65071005f, -0.54805881f, -0.67050779f, 0.18107073f, 2.67693305f, 0.20330986f,
    0.27704984f, -1.44934809f, 0.52678245f, -0.03916558f, -0.00972414f, -1.16614866f, -2.20001602f, 0.21313624f,
    -0.00617869f, -0.18861321f, -0.88463736f, 0.03389097f, 0.00887587f, 0.31452975f, -0.36641288f, -0.16268487f,
    -0.59140325f, 0.49739262f, -3.60409641f, 0.39323375f, -0.03411295f, -0.46515131f, 0.00976146f, -0.45153138f,
    -0.79832947f, 0.22946848f, 0.45650807f, 1.43684864f, -0.43459630f, -2.49405336f, 0.44429904f, -0.19776203f,
    0.15487869f, 0.12310896f, -1.96310508f, -2.16118908f, -0.25394040f, -0.13420713f, -0.39765474f, 1.75518405f,
    0.32889682f, -0.40855002f, -0.82884538f, -1.31669879f, -0.86861682f, -1.18520665f, 0.82247072f, -3.03200865f,
    0.11380657f, -0.11107219f, 0.09642348f, -0.71113020f, -0.09021364f, 1.17513180f, -0.05992389f, -1.03538013f,
    -1.06141210f, -0.33181322f, -0.11155637f, -0.17681743f, -1.03631115f, -0.57090062f, 0.11334930f, 0.53201854f,
    0.61259538f, 1.31222737f, 0.88001662f, 0.23054162f, 2.19565201f, 1.33554971f, -0.30457088f, -0.14891754f,
    0.17531107f, -0.81594455f, -1.09926462f, 1.32556200f, 0.45405760f, 0.93589276f, -0.92476165f, 1.28466034f,
    1.11587501f, 1.02361155f, 0.21584904f, -0.70913833f, 2.26017690f, -0.55124116f, 1.16445148f, -1.67544556f,
    0.36340359f, -0.04976769f, -1.23672640f, -0.28992230f, 0.54142112f, -0.45626023f, -0.76390648f, 0.52792943f,
    -0.30252686f, 1.11581349f, -0.39127481f, -0.57543999f, -0.19349307f, -0.51970655f, 0.40584424f, 0.38810411f,
    0.77868980f, -0.04969986f, 0.03090621f, -1.73936832f, 0.49576059f, 0.71926963f, -0.28227469f, -0.30654919f,
    -0.14719674f, 0.24889483f, -1.40556598f, 0.28732997f, 1.21968591f, -0.25497106f, 1.17436659f, -0.47134417f,
    0.34742880f, -0.13347270f, 0.72154516f, 0.39915767f, 1.81602859f, -0.76116085f, 1.31942856f, -1.37377512f,
    -1.21839488f, -0.36801532f, -0.46017566f, 0.36086112f, 1.15532935f, 0.25781226f, -0.66507888f, 0.31159973f,
    -1.51605368f, 1.82874107f, -0.26681224f, -0.07054242f, -0.15351036f, 0.86287618f, -0.62023729f, 1.45643127f,
    -0.65150380f, 1.06760132f, 0.18043613f, 0.50077969f, -0.07904521f, -1.26559651f, 0.35808903f, 0.99765843f,
    -0.56263542f, 1.77540040f, -0.30304694f, -0.11064141f, -1.50738907f, -1.24231887f, -0.72893345f, -1.04514301f,
